hsa-miR-6087,0.6030829,-0.54821247,0.38008565,0.26237804,-0.5985548,-0.4517782,-0.3507999,-0.68769884,0.021261485,1.3056666,-0.081111655,-1.0981376,-0.5062627,0.5915168,0.30623743,1.7303139,-0.74070036,0.71576774,0.47676173,0.27037153,0.5554821,0.59734064,-0.26462793,0.6383528,-1.0196784,0.45257536,-0.2789517,-0.59962016,-0.60509056,-1.1275455,1.2110866,-0.098490775,0.11507484,0.64094335,0.00648857,-1.3509977,0.93646425,0.55726516,-0.6295171,-0.0744878,-0.60581064,-0.05571511,0.19590119,0.40358216,0.15872656,-0.47192138,0.39463398,-0.28099304,0.39797175,0.6506543,0.6480741,0.8216567,0.27348435,0.85132635,-0.46063635,0.090526424,0.9388708,-1.0592021,-0.5743186,0.98271537,-0.8962071,0.44239318,0.4614891,0.18466412
hsa_circ_0002172,-0.03587592,0.039711904,0.3120056,-0.12037723,-0.09405898,-0.11895523,-0.12517208,-0.021082576,0.25562003,0.22726393,0.12565593,0.32563958,0.20971711,0.17876375,-0.1100593,-0.13547355,-0.113021605,0.13945827,0.10200367,0.034749415,-0.002416948,-0.09330093,0.08936777,0.12048542,-0.20948477,0.009635882,-0.37043586,-0.1802171,-0.2774737,-0.19380942,0.09032375,0.057987865,-0.32671294,-0.07774316,0.27134746,-0.2556208,0.07052126,0.17076594,0.18328117,0.038414292,0.15582275,0.33049807,0.010332131,-0.19422868,-0.32007578,-0.23157822,0.108155996,-0.08843864,-0.2789502,0.08497744,0.094262764,0.22802794,-0.23488039,-0.058954526,0.34201223,0.29844165,0.34103534,-0.047381308,0.28302267,-0.14236636,0.20140046,-0.38864577,-0.034659907,0.17371218
hsa_circ_0089776,0.06102522,0.08944541,0.32059482,-0.14303374,-0.13263689,-0.15989701,-0.14151658,0.044991057,0.22943838,0.20799565,0.17016786,0.30002007,0.15310338,0.10507844,-0.07937909,-0.13130109,-0.0736266,0.13477895,0.08265422,-0.07548066,0.053376194,-0.14512324,0.11597438,0.20376013,-0.22621462,0.03659839,-0.2868238,-0.2610273,-0.3135974,-0.13611427,0.16077283,0.06342699,-0.3360928,-0.05368362,0.20440908,-0.18506987,0.10941163,0.17724647,0.13888773,0.038572498,0.18532075,0.40088,0.038674828,-0.24204586,-0.27595302,-0.17955174,0.0772807,-0.046582274,-0.2735568,0.029944316,0.10128573,0.21892975,-0.27830005,0.05518443,0.29622644,0.29049957,0.25082082,-0.09454725,0.23695855,-0.16237006,0.19349237,-0.45522746,-0.1025165,0.17590751
hsa-miR-7-5p,0.12265858,-0.38939175,0.55176556,-0.11849292,0.104369886,0.3274794,-0.5794079,-0.1197638,-0.24845412,0.09760796,0.020688076,-0.70426404,-0.29962525,0.41434002,0.54396254,1.0733833,-0.21764067,0.64396584,0.8364291,0.27668408,-0.014711132,0.26488706,-0.4424519,-0.003622472,-0.8762688,-0.004439389,-0.26297837,-0.88555694,-0.7920556,0.30163878,-0.75024074,-0.10245753,-0.9426786,0.20287363,-0.2075667,-0.04243256,0.7722106,0.45331666,0.21740909,-0.18333842,0.2783135,-0.37767598,-0.7992063,-0.38476902,0.4989908,-1.0763656,-0.3457272,0.14530832,0.20809513,0.097618505,1.3574853,-0.22144197,-0.19769071,0.8460747,0.22366667,0.33167,0.17416969,-0.43493602,0.20762564,1.2039449,-0.42256767,0.18419002,-0.22606543,-0.018025639
hsa_circ_0001946,0.057031404,0.104463905,0.3443107,-0.06588498,-0.14556573,-0.083348334,-0.12001071,0.04392244,0.19498727,0.19365019,0.10014873,0.32384512,0.20310932,0.16030806,-0.1326001,-0.09707286,-0.087059565,0.16436885,0.22169255,0.045824576,0.006080428,-0.121567406,0.08865938,0.15182519,-0.2144462,0.035070114,-0.3457454,-0.16529943,-0.262857,-0.20971137,0.15026113,0.13479507,-0.33813778,-0.17643583,0.23855509,-0.14431529,0.11768525,0.24288875,0.20435725,0.06771882,0.108003646,0.32308728,0.046469662,-0.21228878,-0.37428614,-0.2442164,0.15179223,-0.066586554,-0.2510665,0.07530464,0.11186147,0.18379854,-0.26110134,-0.009746791,0.25914243,0.26483202,0.24021521,-0.044002507,0.31173483,-0.15121637,0.15223122,-0.4135484,-0.13055784,0.17969352
hsa-miR-328-5p,0.022228736,-0.7160346,0.54370356,0.42272982,-0.741758,-0.36383933,0.46946087,-0.044784367,-0.48022124,0.31409258,1.148159,0.7087009,-1.0393047,-0.81417346,0.73926324,0.019179195,-0.38980794,-0.5373574,-0.14321095,0.95996416,0.40663233,0.9088723,-0.44431752,-0.33368477,0.518122,0.9146847,-0.19020465,0.18436047,-0.8552395,-0.5357933,-0.56592387,0.086449474,-0.28866342,-0.38228795,-0.903094,-0.5939487,0.39730158,-0.33748442,-0.043507647,-0.7081039,0.05543104,0.74737716,-0.20631485,-0.9362476,0.5668673,-0.73003256,-0.2162361,0.22591992,-0.4418702,-1.2872664,1.0723976,0.037498273,-0.67578787,0.104215324,0.41862372,0.73509246,1.1481979,-0.2315903,0.808592,-0.13510348,-1.9873543,0.8911926,0.40436998,0.5592345
hsa-miR-3689b-3p,0.26446158,0.07116767,0.4769024,0.36936665,-0.45761287,-0.11876383,-0.2145349,0.5635623,-0.33743834,-1.017166,0.40277824,-0.19227672,0.15123704,0.8931941,-0.36862636,0.5956174,-0.6459069,0.7208554,0.5484428,1.0420808,1.095276,0.30835554,0.3126472,-0.73795474,0.35881728,0.20070435,-0.40957567,0.2809719,-0.51855147,0.6551693,0.99329054,0.4587051,-0.091410615,-0.24171147,-0.53100365,0.1924582,-0.3994123,0.5457807,-0.8900758,-0.63775814,0.7384605,0.64436424,-0.25345266,-0.17540735,1.059885,-0.21283872,-0.22329737,-0.76334053,-0.4162545,-0.47329104,0.90576184,-0.07526437,0.5395228,0.17048523,0.30907175,-0.050291047,1.2061615,-1.378117,0.5663894,0.16080213,0.33394557,0.16453007,-0.7542593,0.9224185
hsa_circ_0041089,0.008950318,0.05022196,0.28729057,-0.099052,-0.08559075,-0.15878655,-0.11311383,0.027313128,0.24279828,0.24368073,0.13489522,0.37741977,0.21692413,0.14378136,-0.09772591,-0.1589374,-0.067860395,0.14708771,0.071785115,-0.03757005,0.06927597,-0.074236885,0.10153768,0.14064042,-0.26714388,0.04067606,-0.31120268,-0.22316764,-0.28588182,-0.1912562,0.097412184,0.13316418,-0.3184469,-0.13849597,0.21176408,-0.25639772,0.06865443,0.13449006,0.17525297,0.002445059,0.15430461,0.36012977,0.011419207,-0.16226059,-0.26600027,-0.17115048,0.18151586,-0.07088175,-0.21319096,0.10323239,0.13575163,0.14275014,-0.2559222,-0.04213724,0.33431366,0.31245387,0.32073706,-0.058240384,0.25471073,-0.18507876,0.14420983,-0.41048363,-0.061103377,0.18177973
hsa_circ_0041099,-0.00433023,0.10371833,0.2621198,-0.13279082,-0.10875019,-0.076771155,-0.09455096,-0.011611681,0.25838017,0.2068619,0.14366356,0.34426442,0.21166652,0.16771153,-0.06323594,-0.09104952,-0.14303206,0.11136425,0.09141934,0.030476391,0.061260015,-0.11640419,0.11503351,0.13258639,-0.2703048,0.016368289,-0.3481599,-0.17659345,-0.28905874,-0.1647529,0.105195686,0.11385482,-0.26040086,-0.11430663,0.21136995,-0.25101385,0.13376623,0.16519241,0.15664025,0.07455036,0.20438378,0.4083891,0.017905615,-0.22576943,-0.34198016,-0.24723464,0.23037589,-0.06780837,-0.26466462,0.050840378,0.06461214,0.22513647,-0.28289962,0.045776587,0.28368884,0.28823063,0.19551542,-0.058598086,0.28231096,-0.15385891,0.12706432,-0.42273107,-0.07288483,0.1971895
hsa_circ_0041116,0.038517628,0.054478217,0.34101033,-0.1075581,-0.019179918,-0.10257195,-0.12167556,0.076313,0.20841146,0.24397619,0.17174056,0.37377805,0.18271367,0.1339603,-0.09639677,-0.12166007,-0.14724827,0.16983165,0.07682512,0.005319059,0.037549134,-0.06530774,0.1082004,0.10858598,-0.2914124,0.05090556,-0.3632248,-0.16990548,-0.3370866,-0.18215397,0.12368452,0.087610215,-0.24108964,-0.11274013,0.25834084,-0.26545718,0.096981175,0.20292373,0.17383932,-0.017262997,0.17069738,0.2967724,0.035605963,-0.19405098,-0.33852446,-0.23711503,0.17733046,-0.052408054,-0.2216058,0.0780205,0.10185224,0.13717419,-0.29905045,-0.019757722,0.3371739,0.24995998,0.22498551,-0.040098283,0.3074682,-0.16538075,0.18585175,-0.40819642,-0.08293914,0.1536316
hsa-miR-3689c,0.23500125,0.29018843,0.53513044,0.39560044,-0.597062,0.09693351,-0.21851747,0.55849576,-0.24577965,-0.88633996,0.484952,-0.16460972,0.23359439,0.79105926,-0.3040526,0.70115036,-0.31922656,0.62662363,0.50246996,1.0254968,1.2743051,0.24022187,0.18421696,-0.77604383,0.25088435,0.21897523,-0.36627102,0.08497054,-0.5045826,0.47502425,1.1474177,0.43990374,-0.15339898,-0.19162405,-0.5032334,0.34926236,-0.44549412,0.5924539,-0.9074212,-0.6593456,0.6259302,0.5744636,-0.10487146,-0.24330798,1.0812441,-0.13589829,-0.32241663,-0.8740257,-0.30658305,-0.44397274,0.70182323,-0.1686316,0.26276934,0.26409328,0.45371577,-0.026241587,1.0906695,-1.6867409,0.5376359,0.17747518,0.39950314,0.3129333,-0.87472886,0.87559617
hsa-miR-30b-3p,-0.45536885,-0.11062057,0.8929219,0.32799023,-0.24920876,0.001692921,-0.0839942,-0.45666382,-0.13429673,-0.045214,1.0474881,0.66966236,-1.4113401,0.10329688,1.1877067,-0.11694336,-0.14948568,0.039180487,-0.029450938,1.2394445,0.55611885,0.872622,-0.9434782,0.09597958,0.0508857,0.58709747,0.62968624,0.36913684,-0.10329622,-0.852185,-0.029055284,-0.55662876,0.20705967,-0.50459564,-1.2042545,-0.530969,0.064924344,-0.04044076,0.3601711,-0.5124386,0.17981881,0.5325181,-0.49563113,-1.0762141,0.86726165,-0.5755228,1.0024313,-0.4658533,-0.75038743,-0.88959503,0.95072967,0.5730371,-0.61415684,-0.30549172,-0.17190297,0.12942606,1.5752449,-0.6745002,0.45280722,0.68269163,-1.3368468,0.55568504,-0.37933457,0.350148
hsa-miR-3689a-3p,0.26700407,0.17991957,0.6671427,0.25819403,-0.586847,0.15375343,-0.163076,0.42969218,-0.20015979,-0.9914499,0.39338782,-0.101934984,-0.000328668,0.6586441,-0.25035113,0.7903358,-0.42010474,0.6361597,0.53404075,0.90761,1.2622042,0.14940564,0.26291946,-0.7014159,0.32492554,0.08624522,-0.25867262,0.2561297,-0.50752455,0.5138303,0.9374086,0.45836872,-0.19328731,-0.24265079,-0.46195933,0.28323248,-0.44225165,0.69397134,-0.95928574,-0.6108069,0.49289912,0.56101906,-0.1336049,-0.29365814,1.2205075,-0.120813176,-0.23782486,-0.7475605,-0.3466839,-0.3180188,0.81330794,-0.03060509,0.4322486,0.124005966,0.65659475,-0.054240867,1.1074482,-1.6167027,0.5036663,0.000129955,0.40969715,0.3191315,-0.92158544,0.8382043
hsa-miR-8485,0.23953556,0.15287441,1.3668242,0.55761784,0.7320813,0.52546537,-0.32836023,0.078913905,0.09008262,0.63593155,0.41993803,-0.706757,-0.37786058,-0.52933496,-0.20426844,1.2684011,-0.4158092,0.44598535,0.19480258,0.3712533,0.12016338,1.32405,0.1304462,0.38223606,-1.0123792,0.39597303,-0.7574734,0.75322527,-0.08810743,-0.52598906,-0.15114722,0.28656787,-1.5078409,-0.093232036,0.79239637,0.77415985,-0.30222917,-0.02797831,-0.7160089,-0.27809805,1.0858319,0.09201328,-0.825232,-0.16205184,1.5796181,0.030394556,0.8704089,-0.85729164,-0.27628613,-0.74744946,0.7218538,1.3094064,-0.61112195,-0.40351206,-0.13717164,0.10328912,-0.22349387,-0.13993771,0.33237386,-0.16267337,-0.67979115,0.4435474,0.86491936,0.1465726
hsa_circ_0089792,0.013730587,0.10709227,0.27401438,-0.001216856,-0.10725744,-0.08086521,-0.074146435,0.04062711,0.21312535,0.19445078,0.16074732,0.36039987,0.14579645,0.07938435,-0.15016715,-0.11477683,-0.14596547,0.19501221,0.077406794,0.010900741,0.022010693,-0.06794081,0.10578753,0.17211846,-0.28680024,0.01358473,-0.36580077,-0.265714,-0.33973455,-0.21761872,0.13828276,0.07304272,-0.27035984,-0.12060885,0.20488676,-0.21934733,0.17083254,0.19615912,0.13623458,0.092047386,0.18260153,0.361276,-0.001073543,-0.21846755,-0.300709,-0.22635299,0.19290055,-0.013602682,-0.23540549,0.06218006,0.0860233,0.16507344,-0.26645714,-0.000414959,0.2693546,0.27019984,0.21306065,-0.062130995,0.27600652,-0.1563992,0.21530822,-0.41634727,-0.07023278,0.1519867
hsa-miR-6851-5p,-0.26222438,0.10727417,0.58337164,0.6448509,-0.23921648,-0.17799771,-0.4182969,0.005984668,0.056462523,1.0390575,0.002396641,-0.8308781,0.1500334,-0.16244228,0.5549972,0.42189515,-0.29883826,-0.78146684,0.43448246,1.2761297,-0.10186169,0.5996246,-0.20312707,-0.72693616,-1.3265232,1.1232445,-1.0200888,-0.72566324,-0.91575384,-0.22746225,0.39118314,0.7473822,-0.7075241,-0.77903175,0.21679439,0.052376155,0.21685849,-0.44463,-1.5688472,0.001498071,0.3669381,0.2050087,-0.53889686,-0.049941655,1.4070588,-0.32477176,-0.3252558,0.6907723,-0.8310946,0.35854837,0.838622,1.7251568,0.028137794,0.17228892,-0.10412047,-0.6256139,-0.08242244,-0.4919513,0.14778006,-0.7432787,-1.1565613,0.014921586,0.29633376,0.13942933
hsa-miR-4778-3p,-0.4806765,-0.24241981,1.0677865,0.24964303,-0.4035036,0.005419431,-0.27403164,-0.2377248,-0.52649456,0.12221495,0.9166553,0.4404362,-1.2935504,-0.31602067,1.1415056,0.12870578,-0.10442931,0.034990896,-0.32368326,1.3077878,0.4776374,0.8131986,-0.8780733,-0.058477964,0.48892695,0.7104538,0.061130818,0.31787315,-0.31207922,-0.8698577,-0.016794203,-0.664775,0.042817537,-0.16275941,-1.0038285,-0.6106124,-0.032947972,-0.06329557,0.3054053,-0.51486516,0.0863948,0.93480736,-0.31420434,-0.98438287,0.67823076,-0.62976384,0.637701,-0.05482415,-0.5690498,-1.124728,0.8683393,0.17965552,-0.7667677,-0.17225815,-0.15501882,0.29382303,1.4848669,-0.64367205,0.6110755,0.4992474,-1.6865516,0.5978681,0.058173046,0.2771445
hsa_circ_0013871,-0.017574396,0.08601819,0.3091769,-0.09619852,0.008435767,-0.13334191,-0.15104286,0.010439443,0.20457153,0.23794691,0.189223,0.33545363,0.20883812,0.1281472,-0.14528836,-0.07945118,-0.14944822,0.15229332,0.11880275,-0.000473433,-0.00962703,-0.10962915,0.0843494,0.12815613,-0.18613939,0.06505725,-0.33860064,-0.2431032,-0.30252257,-0.15910329,0.16385385,0.08699494,-0.24660109,-0.11421982,0.17491496,-0.25646868,0.07831138,0.18969594,0.15899776,0.020346329,0.21782522,0.39821702,0.0268911,-0.15395214,-0.29156137,-0.32578468,0.14055233,-0.001090911,-0.2393683,0.10233639,0.09175587,0.21857922,-0.22593053,0.030737737,0.27897048,0.24130966,0.2575084,-0.02565488,0.2969917,-0.16934323,0.16613193,-0.36096096,-0.02802053,0.22820991
hsa_circ_0013870,0.03482236,0.11355362,0.25881347,-0.119994275,-0.06946206,-0.14718221,-0.06956973,0.009926284,0.22839035,0.18060791,0.1472965,0.29363334,0.18598008,0.13359927,-0.10559074,-0.13856247,-0.057619452,0.18095952,0.11286866,0.047494877,0.031752575,-0.14734325,0.06853295,0.19703107,-0.2559379,0.063060775,-0.34681565,-0.27656364,-0.28685525,-0.17927179,0.08814826,0.09159905,-0.25589985,-0.14330517,0.21768716,-0.24470805,0.12053788,0.15992717,0.12444327,-0.0414349,0.15499407,0.3986854,0.042421386,-0.21199994,-0.27994448,-0.20329896,0.19470324,-0.023128998,-0.22618498,0.042709455,0.13288142,0.25448734,-0.30057836,0.009190807,0.31094944,0.28795093,0.25403303,-0.029306645,0.24808429,-0.14110841,0.18991664,-0.3905558,-0.094033696,0.19328153
hsa-miR-4300,-0.019201733,-0.21956377,0.44591105,-0.27413592,0.11309116,0.1787887,-0.530745,-0.10553766,-0.14253698,0.06516825,-0.17328613,-0.62989354,-0.52530533,0.45006627,0.5926831,1.1151713,-0.33959827,0.70249623,0.7954867,0.2937262,0.045862943,0.33925414,-0.56098795,-0.06768358,-0.8229536,0.12581621,-0.37476543,-0.93719155,-0.76855445,0.19941074,-0.68597066,-0.0917765,-0.9958981,0.31470457,-0.1838892,-0.13881373,0.629352,0.41231963,0.21466008,-0.25157577,0.36502594,-0.30592304,-0.83388186,-0.53747725,0.61525947,-1.0537953,-0.34816906,0.24550138,0.1595257,0.07894126,1.1742471,-0.15664147,-0.2788151,0.93155766,0.12504399,0.29280993,0.263095,-0.2338792,-0.07579926,1.184055,-0.2794319,0.12554057,-0.19839777,-0.111014366
hsa-miR-3192-5p,-0.15176368,-1.0617985,0.71198475,0.47428757,-0.7381929,0.27644598,1.0952069,0.21257101,0.31088206,-0.21649228,0.28340784,-0.058457546,0.11422959,-0.5494229,0.878657,1.5572097,-0.3393477,0.21904214,0.28499976,0.7079065,-0.44160026,-0.65563834,-0.8908231,-0.25203434,-1.0635774,0.37396178,0.3064278,1.4078983,-1.6069014,-0.74346334,1.0715324,-0.086186044,-0.725002,-0.5352972,-0.12532923,-0.14023794,0.3070355,0.37122265,-0.26216376,-0.31587026,0.7040568,0.09022039,-1.7427708,0.17557988,0.41654778,-0.51737154,0.052902408,0.8076909,0.5392718,-1.5226078,0.4982652,0.044843372,-0.40258157,0.34716654,-0.6944885,0.9787685,0.7865892,-0.9997262,-0.6077275,-0.4682806,-0.4894871,-0.42406893,0.1575184,-0.05508638
hsa-miR-6780a-5p,0.21435282,-0.88754153,1.4491092,0.6378522,-0.58249146,-0.17061608,0.6694037,0.10216911,0.6736133,0.30176544,-0.001339514,0.41689405,-0.1641844,-0.5554399,0.53417075,0.96196055,-0.32003912,0.22524713,0.3983816,1.2188171,0.40684253,0.13347967,-1.1596106,0.009213854,0.0375577,1.0600524,0.6005898,0.92517126,-0.60317075,-0.4526577,0.21506812,0.6634758,-0.48652974,-0.36974037,0.19090685,-0.0964063,0.27882525,0.23547277,-0.48014987,-0.70968664,-0.20557435,0.38057312,-1.4840872,-0.1924412,0.137967,-0.13634612,-0.4079175,0.8970018,0.055830155,-1.578035,1.0445137,-0.5737512,0.058022376,0.15891656,-0.1471116,1.3427895,1.1013077,-0.46128705,-0.15100883,-0.35533753,-0.5782102,0.4413507,0.1475671,0.45961434
hsa-miR-6756-5p,-0.012864239,-0.4219194,0.515185,0.09618406,0.08649126,0.6647137,-0.2963425,-0.8453413,-0.3486833,0.28069744,0.45322222,-0.15458263,-0.9499995,-0.020723067,0.76393056,-0.31522575,-0.84112746,0.11229888,0.35694027,2.262669,0.2522875,0.34452063,-0.56682503,-0.14829534,0.28125387,0.36796165,0.6667824,0.053725615,0.26888192,-0.6236105,0.7400319,-0.18179125,0.5188852,-0.13897438,-0.9284687,-0.17633396,0.2891001,0.6194954,0.32428846,-0.6891945,0.4268737,0.57509905,-0.58486927,-0.93159,1.2055324,-0.62707824,1.1919059,-1.3697591,-1.2938186,-0.99515915,0.99843776,0.590139,-0.9177576,-0.65106326,-0.46981227,0.3077547,1.2342069,-0.39500156,0.37244242,0.3518242,-1.195313,0.3928737,-1.0124558,0.13775101
hsa-miR-6726-5p,0.7938297,0.5882645,1.5696254,0.3247095,0.40696755,0.84497815,-0.59438324,-0.81520516,-0.38514915,-0.6517662,0.86896163,0.23513183,-0.07236179,-0.68858904,1.0549587,0.5468985,-1.6402532,0.39878508,1.0435576,-0.05737699,0.787379,-0.07556166,-0.22509941,-1.0888327,-1.3094708,1.6712763,-0.5852112,-0.27057773,-1.1898192,0.8583576,0.051526446,-0.17742029,-0.8495971,-0.21570545,0.12817083,0.7230763,0.2474235,-0.5376988,-1.0496068,0.12977275,0.9069259,0.5390897,0.1986354,0.5456922,-0.38565668,0.101762526,-0.82809776,-0.14883693,-1.1462178,-0.07926841,0.32858872,-0.02671952,-0.21961094,-0.7536239,0.4072441,0.37109336,0.6824258,-0.8747723,-1.8248885,-0.6065569,-1.0699435,-1.3488533,-0.49857977,0.5244891
hsa-miR-4728-5p,0.15333551,-0.81438273,1.4746732,0.7954446,-0.4706294,-0.31347525,0.7399471,0.32287052,0.5398227,0.36996007,-0.052884907,0.40287864,0.047069073,-0.49142483,1.1077572,0.9412544,-0.26331517,0.7003846,0.33830267,1.2150027,0.60358393,0.13444848,-0.7931766,0.009580226,-0.09840892,0.93389755,0.40015647,1.0928712,-0.49395463,-0.8068862,-0.0769983,0.7785551,-0.44439033,-0.037696403,0.1192953,0.023361012,0.22023462,0.34410614,-0.6986174,-0.54309744,-0.22378278,0.71612,-1.6614847,-0.38837954,0.23768355,-0.26245457,-0.50461155,0.84717566,0.034141596,-1.5060735,0.9571793,-0.6069891,0.08616258,0.09952874,-0.13568859,1.3201736,0.89671415,-0.3847497,-0.18924761,-0.27275017,-0.6653605,0.32768264,-0.11495119,0.4011671
hsa_circ_0037995,-0.050574925,0.13389726,0.28635576,-0.107226126,-0.11265557,-0.16282327,-0.050070222,-0.03159269,0.22443561,0.19520049,0.1384391,0.31436828,0.15819675,0.17650533,-0.18543038,-0.05513957,-0.17023547,0.1442085,0.06981048,-0.013258341,0.07760545,-0.07905271,0.13390428,0.16294685,-0.2255696,0.02204533,-0.31770685,-0.26933724,-0.27856866,-0.1697399,0.140865,0.16444805,-0.29860944,-0.17894204,0.19753975,-0.19057563,0.09236841,0.18448111,0.16943167,-0.020010462,0.18145873,0.35725188,0.03192715,-0.22021656,-0.31055224,-0.21228431,0.19639534,0.008441432,-0.22774649,0.071087465,0.19175662,0.16844109,-0.28048593,0.002776639,0.30562475,0.29591325,0.21588655,0.00061931,0.194912,-0.22093424,0.13507852,-0.45018175,-0.015848039,0.18836105
hsa_circ_0037996,-0.025840746,0.121584535,0.20503996,-0.123658024,-0.062339343,-0.15445335,-0.0913513,0.016016698,0.18981053,0.21824463,0.21885096,0.3489593,0.20284654,0.10086207,-0.109260246,-0.07421662,-0.12760037,0.19091858,0.062004127,-0.11013859,0.04398971,-0.086991645,0.06944441,0.13345513,-0.32615882,0.06512125,-0.31194693,-0.1933466,-0.30504206,-0.12720993,0.08283919,0.10526802,-0.2941344,-0.12863034,0.23672758,-0.2985852,0.07529664,0.16789632,0.13434581,-0.012150522,0.12160357,0.38069355,-0.001307231,-0.20614502,-0.34164542,-0.17551094,0.1818121,0.012160801,-0.33515128,-0.001604914,0.12135592,0.21987002,-0.2776645,0.05929366,0.33413562,0.25955287,0.29002973,-0.04377848,0.30880854,-0.14392135,0.20411995,-0.3983656,-0.050138585,0.17701373
hsa_circ_0052415,0.015866615,0.06295525,0.4062991,-0.10704144,-0.058722056,-0.12684797,-0.07619764,0.034460623,0.20863535,0.20045847,0.123095766,0.37706152,0.18369085,0.14439791,-0.098340794,-0.104974166,-0.15277013,0.124299586,0.083541214,0.02304973,0.012224874,-0.078013,0.11719994,0.13411082,-0.215555,-0.002525692,-0.35031334,-0.24958944,-0.28615785,-0.17286515,0.08942223,0.10989833,-0.3397291,-0.15968916,0.255478,-0.20133172,0.09587606,0.1461946,0.17437354,0.03973327,0.1566139,0.3832386,0.030186597,-0.19485095,-0.36404485,-0.23671465,0.114408605,-0.046756398,-0.26276666,0.07178576,0.08840485,0.14215977,-0.22160801,0.021134552,0.22141321,0.2287313,0.29419145,-0.022362428,0.2494915,-0.15226641,0.20328937,-0.39046794,-0.073648684,0.18299477
hsa-miR-650,0.6180793,-0.248889,0.24681196,0.12064445,0.26108906,-0.30302542,0.28391746,0.2626269,-0.34361237,0.31808206,0.55884635,-0.44526884,0.09943969,0.1758075,0.40025115,0.9516984,-0.31553817,-0.052971978,-0.49328822,0.8030744,0.48965946,0.39259452,0.09171492,-0.086684644,-0.056856096,0.4445097,-0.022800524,0.0859269,-0.41600204,-0.07995471,-0.6986079,-0.052131116,-0.46294382,-0.8037047,-0.41663358,-0.3252112,-0.30248272,0.48637158,0.4947069,0.5318569,-0.19217435,-0.07934774,0.012489692,-0.06930971,0.36398193,0.17942643,0.1691398,0.05482953,0.08968024,0.20008288,0.0757972,0.13321854,-0.023741787,0.1361627,0.2974481,0.014106533,0.66697836,-0.79058015,-0.5903456,0.6520789,0.07444285,-0.74672896,0.2143922,-0.09452213
hsa_circ_0037997,-0.00998313,0.0894682,0.2802754,-0.12658519,-0.08738397,-0.06729529,-0.13684879,0.12175971,0.2312763,0.24623805,0.15882607,0.40466493,0.11951518,0.126763,-0.06872276,-0.13628873,-0.11156833,0.14099766,0.07246725,0.003568328,0.047742225,-0.09709537,0.12788896,0.07621147,-0.2605952,0.082661875,-0.32893154,-0.21288574,-0.33904424,-0.18478544,0.118024915,0.07197241,-0.32283536,-0.0944593,0.27381802,-0.2738053,0.07269119,0.16754952,0.22599472,-0.038587235,0.1357617,0.3005166,0.05560757,-0.16401394,-0.2574686,-0.17393696,0.18467544,-0.044185992,-0.24153185,0.105255,0.14959104,0.14657398,-0.22476533,0.041904636,0.3337102,0.3234193,0.22706616,-0.028860636,0.3123901,-0.13401824,0.17632842,-0.43898872,-0.078965425,0.14536934
hsa-miR-1277-5p,0.5409136,-0.5191652,0.8799993,0.47763112,-0.71987087,-0.41067916,0.575854,0.40911803,0.09638474,0.3541527,0.96257675,0.62269026,-0.41459337,-0.9780648,0.91512305,0.69045407,-0.37215713,-0.21669911,-0.16468628,1.0383137,0.6683792,0.9388229,-0.18870503,-0.45817748,0.72640514,1.3803699,-0.24677092,0.17676903,-0.45185345,-0.35691735,-0.49313906,0.5099525,-0.5163449,0.047591086,-0.2893877,-0.6900663,0.39319077,0.072645925,-0.31123087,-0.92063266,0.036045384,0.92427486,-0.67502785,-0.7588569,0.3858266,-0.6855353,-0.56886953,0.6506027,-0.329616,-1.3374243,0.9872901,-0.40212283,-0.80297583,0.124741666,0.3686377,0.81224227,0.8075453,-0.06272401,0.89565724,-0.43354172,-1.7029957,1.0494887,0.10111594,0.4562812
hsa_circ_0057112,-0.027771834,0.09210268,0.314488,-0.006618519,-0.087960735,-0.12820186,-0.09544042,-0.03077726,0.21021922,0.20198816,0.084380805,0.3134958,0.22385935,0.11400471,-0.09088189,-0.056217298,-0.11087049,0.13114533,0.037965626,0.017803632,0.019976776,-0.10450551,0.1411411,0.17310366,-0.22019649,0.032359477,-0.33025235,-0.20552358,-0.28020933,-0.15174471,0.13823494,0.078228205,-0.36504394,-0.09474241,0.21457872,-0.26139018,0.041631725,0.14810348,0.14919837,0.013414259,0.25879982,0.3387335,-0.010711125,-0.13069461,-0.36212906,-0.28609183,0.2269469,0.044549957,-0.28670794,0.11041441,0.122937314,0.16635299,-0.24920739,0.042735238,0.35930568,0.26732555,0.2829884,-0.08015861,0.2967967,-0.17320924,0.24547313,-0.39459938,-0.062381838,0.1983435
hsa-miR-1249-5p,0.31574735,-0.8167228,1.4335594,0.67430633,-0.5626679,-0.3867274,0.70098335,0.38010097,0.6427886,0.5011287,-0.07856271,0.30768973,-0.18001926,-0.5676054,1.0199432,1.0122223,-0.3699854,0.65189123,0.25344124,1.2271032,0.5022882,0.5102796,-1.0373007,-0.17683607,0.12448662,1.1883664,0.19841237,0.8975422,-0.4861476,-0.59286517,-0.022574201,0.6900061,-0.5051633,0.13905069,0.06446418,0.11866479,0.36075458,0.2940778,-0.43347737,-0.72897613,-0.20477556,0.68810207,-1.4531506,-0.4758531,0.14538474,-0.022004332,-0.52743703,0.89538556,-0.11964768,-1.5807099,1.0200822,-0.57224554,-0.13644761,0.055917885,0.08643275,1.1466519,1.0477343,-0.11160146,-0.07549986,-0.4098309,-0.55951583,0.5076755,-0.10630904,0.37062714
hsa-miR-103a-3p,-0.009746793,-0.2942908,0.47273263,-0.16691692,0.3423587,0.2914069,-0.59780073,-0.052801766,-0.08313815,0.09898534,0.002837216,-0.6455884,-0.243204,0.3628195,0.48806006,1.0610889,-0.3249886,0.68022585,0.8712309,0.21293916,0.08827875,0.350643,-0.6820301,0.00090013,-0.89203423,-0.07081877,-0.31407723,-0.8508598,-0.6196475,0.19951987,-0.77010137,-0.1769178,-0.97744256,0.30697277,-0.18003292,-0.26417714,0.6887402,0.26865256,0.12499815,-0.21636397,0.32817602,-0.23772007,-0.9005212,-0.558171,0.45903546,-1.1528273,-0.34398735,0.29417214,0.38708946,0.1591562,1.3561957,-0.2320707,-0.15000652,0.6495734,0.16863814,0.28627563,0.43120816,-0.45965868,-0.10106543,1.1760163,-0.30722994,0.21511184,-0.33851022,-0.082969144
hsa-miR-107,0.10831603,-0.37951976,0.5246284,-0.26158094,0.20043363,0.3151386,-0.6180827,-0.13450345,-0.0979269,0.123059504,0.057910267,-0.7432587,-0.54945886,0.39170232,0.6190229,0.9937097,-0.31730476,0.73162556,0.8877682,0.19455665,0.03954748,0.32823506,-0.44548646,-0.027730582,-0.98614347,0.15619725,-0.33078703,-0.97053003,-0.683584,0.121319674,-0.6334673,-0.087677084,-0.8790803,0.24642603,-0.20259671,-0.22772606,0.6796504,0.3045607,0.29084143,-0.1846947,0.4407798,-0.38947734,-1.0101041,-0.51908267,0.60014224,-0.89253426,-0.39407036,0.2930248,0.3406644,0.070378475,1.2174605,-0.2609482,-0.26831523,0.7220292,0.23631263,0.28669465,0.27601594,-0.4130011,0.14914103,1.1580998,-0.1767343,0.12138912,-0.28698012,-0.28080463
hsa-miR-7110-5p,0.9951611,-0.25949875,0.5337504,-0.31306276,1.1278609,0.42843518,-0.122726664,-0.38550147,-0.5861506,-0.5699331,1.0665486,0.41550863,-0.3323213,-0.52860636,0.47240907,0.7509212,-0.36872318,0.033278193,-0.033765815,0.46583658,-0.023663817,0.3144612,-0.8080805,0.93858415,-0.98033977,0.26956916,-0.7089383,0.4840987,-0.23155922,-0.096747465,0.5769528,0.38066477,-2.1793053,-1.2273327,-0.19403923,0.75603956,-0.5513231,0.19608867,-0.57387745,-0.6608133,1.0292149,-0.16968745,-1.2774628,-0.55744076,0.9226934,-0.2724993,0.21634531,-1.2095888,-0.498737,-0.25011784,0.327949,1.0680792,-0.6565718,-0.3885056,-0.19554932,0.6802592,0.21630542,0.03342581,-0.06563641,0.31086892,-0.112039246,0.7376614,1.1390613,0.19571468
hsa-miR-920,-0.048755642,-0.36118105,0.6303274,-0.16130216,0.15304933,0.2224922,-0.5954549,-0.2944161,-0.13776962,0.16888808,0.052920178,-0.6186381,-0.41936088,0.2963519,0.48236936,1.1150217,-0.30056292,0.75129896,0.8899703,0.2895116,0.09727776,0.22627266,-0.49843994,-0.09660426,-0.7216952,-0.1935625,-0.38482827,-1.0010836,-0.7312657,0.33285183,-0.69241613,-0.09693159,-0.9060629,0.13437061,-0.23182498,-0.25328222,0.76817036,0.36317575,0.17235279,-0.15378167,0.3969472,-0.3428881,-0.7915539,-0.3893737,0.65989286,-0.9961609,-0.41794342,0.18614618,0.3791137,0.038241755,1.2566825,-0.14922442,-0.41438767,0.8428553,0.12967482,0.21704134,0.35825294,-0.20962644,-0.003793533,1.1736243,-0.26588413,0.13923573,-0.15455236,-0.052353304
hsa-miR-6752-5p,1.2524621,-0.29044983,-0.35844857,-0.40493026,-0.01720511,-0.101475865,0.478423,0.5121188,-0.23816001,-0.9269988,1.2467388,0.33215055,0.020392356,-0.7584619,0.72780377,1.2262564,-0.5474139,0.17738931,0.3854087,0.8208017,-0.97135764,-0.9306658,-0.5174334,0.134657,-0.8911441,-0.09668834,-0.48116097,0.7557001,-0.91086674,-0.42920518,1.0874392,-0.055024534,-1.6440313,-0.9048439,-0.48144674,0.76252294,-0.016205175,0.091587774,-0.09494518,-0.8705397,0.54146963,-0.18211138,-2.0089183,-0.067404754,0.9253097,-0.58601743,0.06648832,-0.6091426,-0.3817822,-0.03209938,0.12734303,0.7116952,-0.8035932,-0.1858498,0.19204639,0.6581832,1.2955939,-0.6374368,0.091951676,-0.5497013,-0.74758166,0.4865563,0.8261329,-0.35701746
hsa-miR-646,0.7947424,-0.16342838,-0.20774566,0.1884908,0.38546154,0.4329271,-0.018024111,-0.43464237,0.7925333,1.1097928,-0.29458797,0.44544688,0.17984727,-0.49027508,1.3946375,0.36719713,-1.1701288,-0.4484167,0.23346287,0.5803248,0.30349988,0.24187002,0.14406401,-0.85103756,-0.41136473,1.2032641,-0.54199904,-1.0674994,-0.73944134,0.51769596,1.044446,-0.05111199,-0.23634596,-1.4426713,1.4020725,1.4133507,-0.45071018,-0.11184146,-0.7778246,-0.06417659,-0.47326314,0.2794638,-0.49883145,-0.15470712,1.1873287,-1.0887868,-0.808523,-0.05099545,-0.63271165,-0.110035084,1.9370513,0.8272085,0.05970455,0.18857323,0.20465304,-0.38821766,0.4045228,-0.880558,-0.1907392,-0.19703528,-0.8929912,0.004367587,-0.038653895,-0.07727154
hsa-miR-4739,-0.23891988,-0.050082162,0.8280148,0.31916457,0.006413695,0.34137332,-0.3197212,-0.7917723,-0.5022329,0.037454326,0.751455,0.1867234,-1.1227765,0.15191028,1.1545489,-0.2777669,-0.31837204,0.29456106,0.2263444,1.7377648,0.49781483,0.6817944,-0.950026,0.16964705,0.25897244,0.5837185,0.72272044,0.16456047,0.07405243,-0.7651184,0.41369772,-0.3426442,0.50749767,-0.20270394,-1.025398,-0.20585077,0.2500903,0.38605934,0.3118243,-0.64797306,0.30208272,0.46874407,-0.6098936,-1.0377403,0.88734215,-0.5729919,1.1879498,-0.9042322,-0.9892445,-0.97362566,0.91680926,0.98140514,-0.67972195,-1.0053402,-0.4096618,0.005946036,1.5967425,-0.77223814,0.19027984,0.67855,-0.90479136,0.52064425,-0.7815657,0.085208766
hsa-miR-6812-5p,1.0079584,0.11205193,0.9166419,0.33928072,-0.052728936,0.52512527,-0.16557693,-0.5320306,0.6019611,0.03703254,0.5704306,0.7969935,-0.057200424,-0.33614558,0.53140837,0.6815215,-1.2238442,-0.37314254,0.59559447,-0.054541484,0.48308125,-0.13095978,-0.09576712,-1.0603797,-0.86329883,1.3634211,-0.63148004,-0.8142178,-0.20581149,0.33918226,0.3624758,-0.9199897,-0.95528966,-0.58571774,0.27015343,0.91384375,-0.67707366,-0.79431677,-0.9242042,0.37520337,0.014858661,0.31644756,-0.9546103,0.34288937,0.2568376,-0.02832649,-0.11339665,0.13693108,-0.2076951,-0.7435883,1.2792907,0.6734788,-0.3541805,-0.2777595,0.35436347,-0.34948277,0.41520256,-0.4397683,-1.1931127,0.122903,-0.71788716,-0.5934149,-0.949303,-0.19255354
hsa-miR-6799-5p,0.22341451,-0.2866412,0.18628627,0.13861506,-0.16979606,0.046068992,0.6275361,-0.5555933,-0.69602567,-0.469593,1.0137739,-0.2857406,0.8907889,0.32866052,0.19120497,0.84139085,-0.41214487,0.14424294,0.03518783,0.39280054,-0.29241505,1.1578804,-0.018404692,-0.5861626,0.015828073,0.9188475,0.21829426,-0.5542891,0.113903195,-1.1515265,-0.25081226,-0.011565509,0.46465877,-0.6091641,0.68800366,0.32448152,0.25465956,0.9850867,-0.31771204,0.39610037,0.93695545,0.34490058,0.2698227,0.08584199,1.1366259,-0.20264524,-0.2823101,-0.3901028,0.070841596,-0.56822056,0.81524175,0.65401137,0.6550842,0.5323823,0.73566574,0.95774317,1.3622648,-0.45563337,0.028802902,-0.24238057,0.52654314,0.49244347,-1.2257887,-0.42012984
hsa-miR-6756-3p,0.77977276,-0.09815178,0.9166267,0.21731502,0.08102492,0.60171753,-0.15920347,-0.42773646,0.4405781,-0.06522126,0.55843437,0.81303227,0.056978855,-0.43966946,0.58855987,0.7848621,-1.1935761,-0.105985746,0.6491397,-0.16931514,0.8127604,-0.11908952,-0.09362657,-1.0721223,-0.7843413,1.4522994,-0.8444544,-0.6408133,-0.3371704,0.23891182,0.42044157,-0.9387287,-0.76596266,-0.7876079,0.3050324,0.934931,-0.5790773,-0.76174885,-0.8891747,0.308504,-0.15111428,0.22248343,-0.8985007,0.48128784,0.30893168,-0.23854803,-0.21882312,0.23756658,-0.2913915,-0.7320465,1.3777701,0.86328137,-0.39451963,-0.36329967,0.49895892,-0.53188545,0.5235329,-0.17013004,-0.9352448,0.19788213,-0.80279475,-0.6034351,-0.8986384,-0.30463722
hsa-miR-4446-3p,0.8492567,-0.09424374,0.63476455,0.26164973,0.36198944,0.566453,-0.08518591,-0.756208,0.8090681,0.07410181,-0.49279216,0.944525,0.3601334,-0.24736413,0.6295946,0.50584555,-1.1407704,-0.4970964,0.22404124,0.19232987,0.5109218,-0.06572672,0.20606181,-1.6648321,-1.0743735,1.838795,-0.6916867,-0.49569428,0.06875129,0.12068437,0.6575274,-0.73509157,-0.8081855,-0.96554524,0.41086075,0.6165662,-0.70119506,-0.96724737,-1.012612,0.317927,-0.27820647,0.64895767,-1.0072273,-0.18314236,0.36531585,-0.38690928,0.04626708,-0.033214845,-0.04655821,-1.110583,1.6197709,1.1991022,-0.48161626,0.25134796,0.51776385,-0.33661398,0.37684825,-0.32930183,-0.29631922,0.7048997,-1.1270143,-0.6894857,-0.6144242,-0.40307105
hsa-miR-4498,0.07893483,-0.844869,0.88520664,0.32263985,-0.4669066,0.17483453,0.76219434,0.06435272,0.37080935,0.013149246,-0.22857799,0.059447728,0.26408964,-0.49355924,0.9118275,1.7095855,-0.16327092,0.18231694,0.3199957,0.65698695,-0.24646977,-0.49734002,-0.6856389,-0.43633333,-0.7190745,0.79943484,0.50564104,1.2121433,-1.668979,-0.8357253,0.82013726,0.34507224,-0.5983059,-0.3113375,-0.09382715,-0.08712469,0.23347993,0.23179288,-0.6611708,-0.29053894,0.27977648,0.27725342,-1.6104546,-0.2503541,0.4477298,-0.3689641,0.20353244,0.87447214,0.40267506,-1.4091974,0.63122916,-0.53715783,-0.66182065,0.23352653,-0.47324356,1.377363,0.64000475,-0.8546116,-0.30916095,-0.49937063,-0.6124433,-0.21933001,0.26699087,0.19045635
hsa-miR-4672,0.49564663,-0.16076851,0.2299318,0.20986919,0.21855587,-0.38323277,0.13359036,0.2568101,-0.2229305,0.40185073,0.59866685,-0.44479305,0.14681914,0.08791114,0.37603334,1.0159501,-0.5115322,-0.08661805,-0.37325296,0.8949627,0.6249048,0.40646666,0.077372044,-0.06814902,-0.0073995,0.3958936,-0.09533652,-0.016094025,-0.44966298,-0.045875303,-0.58555925,-0.031080855,-0.3697796,-0.810601,-0.5909783,-0.063931845,-0.23399448,0.44361284,0.5101592,0.59537864,-0.19626145,-0.15077631,-0.044830427,-0.2323986,0.29358658,0.25752488,0.14455451,-0.01659758,0.23536852,0.25954214,0.047092825,0.15634584,0.086428076,0.10742447,0.26913524,0.20179929,0.62428474,-0.8214038,-0.49741578,0.5867206,0.08934704,-0.66833025,0.2730716,-0.16709746
hsa_circ_0005461,0.018750677,0.13286188,0.29554743,-0.16635735,-0.03120729,-0.11161268,-0.15010557,0.033712547,0.22042544,0.2273258,0.16676007,0.36012903,0.17374846,0.10506519,-0.1166291,-0.079136215,-0.075398505,0.18864362,0.08402686,0.02066189,0.034083102,-0.10620134,0.093969315,0.15980023,-0.23929237,0.027559943,-0.34670603,-0.1798527,-0.28324944,-0.20787649,0.13124564,0.14744154,-0.2839299,-0.1255969,0.21418059,-0.20081629,0.08097217,0.14761563,0.16102514,0.06200716,0.14295039,0.38379863,0.05562931,-0.15698455,-0.3350561,-0.29091325,0.15087713,0.019368077,-0.26139942,0.04071169,0.08297053,0.15577859,-0.30307877,0.009663892,0.2798217,0.27526197,0.26469865,-0.12774323,0.31657693,-0.13595408,0.16106421,-0.3565065,-0.08941672,0.15584567
hsa-miR-6790-3p,0.63666236,0.41458416,0.7050957,-0.38322783,-0.59169567,-0.44881433,0.3351074,-0.27102232,-0.34194624,0.0954793,0.8300699,-0.5638739,-0.29957634,-0.55644035,-0.3023557,0.5829226,0.39736775,0.18991958,0.001335095,0.8043979,0.2276353,0.4570229,-0.5478373,-0.3128042,-0.47817218,0.12760602,-0.4708978,0.32133535,-0.44482103,0.3598432,0.66450584,0.22097369,0.07750376,-0.13801678,-0.030650973,-0.041156378,-0.47141528,-0.48133132,-0.51334715,0.5786043,0.41994402,0.28685546,-0.011603962,-0.07960965,0.5669932,-0.9285794,0.2364141,-0.4745215,-0.29156724,-0.3067722,0.61242855,-0.22550747,0.9364301,0.1916147,0.901593,0.8187323,0.7538178,0.033367347,-0.29021138,0.8914843,-0.0875493,-0.2636331,-0.3443606,-0.5137202
hsa-miR-6862-5p,0.68838704,-0.6120461,0.27099496,0.25544924,-0.70340157,-0.41795233,-0.18555164,-0.7872887,0.08804257,1.2679831,-0.100716874,-0.9780469,-0.5293891,0.7843083,0.19900346,1.5027832,-0.74347866,0.8726316,0.39432794,0.6074496,0.6368965,0.63841355,-0.48076072,0.7774656,-0.99600023,0.51675326,-0.11570842,-0.6254226,-0.5148703,-1.14603,1.1317636,-0.11183368,0.10109568,0.5422981,0.027619146,-1.2675476,0.79747427,0.54883313,-0.83953273,-0.22328314,-0.6788997,-0.062313303,0.05571046,0.42887127,0.23845685,-0.61532617,0.19586957,-0.13651313,0.52426136,0.7573632,0.71364146,0.9179464,0.29591268,0.8084161,-0.45668384,0.14669901,0.9205061,-1.0152941,-0.51018375,1.053221,-0.7104051,0.33086532,0.54071957,0.15881285
hsa-miR-4640-5p,0.4124503,-0.12744415,0.50902146,0.1666506,0.098892696,0.54576117,-0.22595109,-0.7024973,-0.5640079,0.16838165,0.7442608,-0.013610023,-1.1856693,0.21949022,0.4899175,-0.46711034,-0.53484994,-0.024283152,0.5456046,2.0296178,0.27895784,0.3083403,-0.9446394,-0.20378546,0.068984225,0.52472794,1.1049321,-0.15096015,0.40490937,-0.86195445,0.7510687,-0.045970425,0.60549223,-0.1890395,-0.873061,-0.11254978,0.5318488,0.3573556,0.34204146,-0.81153977,0.32437477,0.21673562,-0.57549137,-1.0312169,1.0090652,-0.44240168,1.3395852,-1.0684536,-1.3954297,-0.9559789,1.1116741,0.9357631,-0.7531046,-0.5608588,-0.5733059,0.20007384,1.5654569,-0.46311423,0.34437692,0.5022,-1.0158963,0.3704829,-1.0520401,0.28897846
hsa_circ_0041122,0.07371507,0.115852796,0.3264388,-0.15313171,-0.0472019,-0.09204996,-0.1464893,0.053738773,0.18365824,0.20663695,0.1069035,0.31463012,0.23163839,0.14053854,-0.07019061,-0.11992089,-0.025584893,0.13544962,0.11457033,-0.005185815,0.118644305,-0.12002692,0.08444098,0.13517636,-0.27925253,0.012170894,-0.38157922,-0.15100373,-0.28789097,-0.23324388,0.11471662,0.058799505,-0.27549112,-0.06827736,0.1793088,-0.17185415,0.13058242,0.24472953,0.13759212,0.072205186,0.15713862,0.39722678,-0.008120816,-0.14414364,-0.30763438,-0.20458314,0.10561522,-0.019260189,-0.29020095,0.006264812,0.08973078,0.18547325,-0.31450653,0.000663834,0.33147672,0.30617422,0.23165782,-0.023814915,0.3550671,-0.120750315,0.17357706,-0.37060812,-0.06253712,0.19693272
hsa-miR-5088-3p,0.9815775,-0.7749146,-0.075119495,-0.11300227,-0.35080355,0.34020704,1.0290753,0.4414488,0.3836233,-0.364392,0.75699717,-0.03058076,0.024889367,-0.8774087,0.6257757,1.3458316,-0.16277845,0.13747242,0.52027637,0.57165027,-1.0713452,-1.1869502,-0.033045806,-0.19301924,-1.402464,-0.16602343,-0.13553727,1.3259788,-1.1723329,-0.3733295,0.8306328,-0.54998505,-0.9143722,-0.934434,-0.088489,0.49181217,0.045818835,0.6036783,-0.30783796,-0.74811345,0.91844124,-0.112359114,-1.8352925,-0.21682046,0.7835557,-0.6122529,0.050944474,0.23018219,0.25148684,-0.8887208,0.32678646,0.28961593,-0.48052514,-0.04961337,0.029810887,0.7863886,1.1878989,-1.404594,0.22037418,-0.63234544,-1.2931446,-0.19761088,0.30752292,-0.34528413
hsa_circ_0013876,0.002326865,0.14029992,0.29182228,-0.020770987,-0.056672357,-0.15292431,-0.11624775,0.049531624,0.23215683,0.22426264,0.16464339,0.31769612,0.16058461,0.14354569,-0.109592415,-0.1289707,-0.10640067,0.15978284,0.09005841,0.002815021,0.030382304,-0.11778389,0.08908293,0.15948737,-0.20821664,0.008614077,-0.29861978,-0.22294943,-0.2683599,-0.17658316,0.16098246,0.12159187,-0.3269307,-0.120635115,0.24873665,-0.22277865,0.10175393,0.1994982,0.19057968,0.009303895,0.15638545,0.39728883,0.012079978,-0.18016951,-0.3293504,-0.24968377,0.16101795,-0.037485275,-0.24224833,0.07710632,0.20109382,0.15065424,-0.27655387,0.044852532,0.27580407,0.27763614,0.28396028,-0.035960164,0.20915629,-0.19601394,0.18250144,-0.44051394,-0.022993252,0.14895411
hsa-miR-6881-3p,0.40731502,-0.8418953,1.2311015,0.81833947,-0.5952562,-0.5692261,0.6734951,0.09305593,0.53729373,0.46378163,0.020598542,0.33957207,-0.07180998,-0.4476182,0.8905607,0.83695227,-0.28266466,0.24370559,0.5415372,1.48962,0.5000594,0.3672864,-0.87591994,-0.3365288,0.41901976,1.3701565,0.3289209,0.9919125,-0.3155295,-0.5163164,-0.28532004,0.92573154,-0.55812484,0.06991968,-0.056269407,-0.05513208,0.4660998,0.21591339,-0.47505635,-0.5746222,0.05677629,0.5849376,-1.198893,-0.55040824,-0.004238161,-0.34669593,-0.45221487,0.6496373,-0.17450047,-1.5531677,0.99877816,-0.36521485,-0.37301025,0.08079358,0.08107692,1.2798828,0.87993574,-0.0722605,0.13305293,-0.43280053,-0.936859,0.5280469,-0.05608776,0.51540285
hsa-miR-765,0.15029475,-1.0756583,0.9324856,0.7130204,-0.5124758,0.29444376,1.0733924,0.002114312,0.46038565,-0.04805596,0.19860822,0.13524878,0.15951122,-0.5429823,0.59053236,1.3016815,-0.028160784,-0.062442597,0.40142766,0.8512952,-0.39664507,-0.5410561,-1.0134512,-0.42010373,-0.86879945,0.7121016,0.58739495,1.3490895,-1.4960672,-0.4526333,0.947914,0.21490122,-0.6253657,-0.4171301,0.026458127,-0.3595214,0.29758888,0.32262987,-0.29286334,-0.30363837,0.4437742,0.03674937,-1.613855,-0.22677544,0.30004025,-0.39137763,0.23611122,0.903904,0.6840563,-1.3952074,0.8470725,-0.42373538,-0.28864843,0.60111994,-0.38923338,1.2478751,0.6626786,-1.0428663,-0.43183702,-0.5696955,-0.6018732,-0.28066984,0.42810485,0.50580454
hsa-miR-6778-5p,-0.0483749,-1.3540927,1.3454602,-0.36717978,0.16941628,-0.18658702,-0.19698039,-1.2659175,-0.38919953,0.5618714,0.62181765,-0.09067813,0.29707414,-0.5233877,-0.22242084,1.0820626,0.36166507,0.28593227,0.026009068,0.38315913,0.39078084,0.8693208,-0.58613,-0.8469151,-0.16932994,0.2699554,0.10098703,0.05107889,0.06391779,-1.1879015,-0.92194676,-0.4669102,-0.06206627,0.36146864,-0.80423075,0.36333057,0.41855302,0.713939,0.17606042,-1.5826403,0.45448616,1.1495724,-1.0980685,-1.1136093,0.34767333,-0.43559146,0.13161288,-0.033590205,-0.34048524,0.8779576,0.60365546,0.39065865,-0.1084081,0.6722061,0.22120461,0.16783252,-0.3424938,-0.69602156,-0.3812177,0.8701779,-0.2554683,-0.80720973,-0.15859841,-0.063643664
hsa-miR-1199-5p,0.119771436,0.32611197,-0.102092534,0.57906616,0.15159312,0.029366538,0.21648274,-0.3600671,0.78010374,1.0471445,0.003955385,-0.11630521,0.12778695,-0.5076214,1.1907805,0.30045187,-0.6247895,-0.39587232,0.49131325,0.98669803,-0.032885358,0.22138822,-0.10596202,-0.62849784,-0.82980955,1.1179076,-0.86901003,-0.97665405,-0.5664112,0.32774526,0.78399605,0.1714018,-0.61801356,-0.9241818,0.9911163,1.0533338,-0.44813666,0.12088289,-1.1810234,-0.039566007,-0.3216244,0.3950153,-0.41507798,-0.38319707,1.4165713,-0.636534,-0.6756225,0.60160154,-0.4124368,0.3994229,1.4044958,1.2736768,0.20924121,0.2681914,-0.22204886,-0.35132208,0.4880202,-0.75817484,0.2040282,-0.44012734,-1.0868294,-0.33532652,-0.034987755,-0.2926751
hsa-miR-6779-5p,1.0763915,-0.57042974,1.2684643,-0.060144633,0.09084171,0.7765941,-0.11065521,-1.2045085,0.12643132,-0.028215695,-0.3768738,0.27097934,0.003843008,0.35160002,-0.46811458,0.008700753,-1.4992968,-0.10069933,-0.09114493,0.30127355,0.7204295,-0.770196,-0.5071046,-1.707106,-0.46292087,1.9969097,-0.812666,-0.18350984,-0.29447114,-0.09215403,0.70438576,-1.1903913,-0.9375735,-0.8610185,0.4088231,0.543737,-0.3185413,-0.7896684,-0.8169422,0.15973091,-0.19656399,0.52096754,-0.76299727,0.008718521,0.40968046,0.002207638,-0.09054207,0.19113652,0.10509454,-1.2506884,1.7284418,0.81645644,-0.19561055,-0.17302161,0.39894673,-0.6837947,0.72199315,0.03119589,-0.55484277,0.54445595,-1.2998806,-1.0076473,-0.69304407,0.0807843
hsa-miR-1185-2-3p,0.70771235,-0.16954301,0.26393422,0.20322958,0.2698966,-0.35783193,0.19681889,0.3164407,-0.27974123,0.2786901,0.54569983,-0.5046833,0.080790654,0.11954806,0.42477834,0.93752533,-0.4063221,0.005538172,-0.44325513,0.79440033,0.7132501,0.37214935,-0.021805873,-0.0512712,0.01538493,0.3340163,-0.074263796,0.10036862,-0.31841174,-0.077401906,-0.66405076,-0.16444246,-0.40889388,-0.7125098,-0.5122724,-0.176491,-0.25290364,0.43185058,0.51703125,0.538981,-0.27506775,-0.060963128,0.038877264,-0.09882337,0.40356013,0.22820456,0.23037814,0.18954937,0.17324495,0.23884788,0.1295951,0.33949783,0.022373874,0.16789605,0.3623121,0.3071824,0.63539237,-0.75792277,-0.613866,0.502306,0.11228198,-0.64576447,0.23332046,-0.05205787
hsa-miR-4726-5p,0.3206642,-0.36564738,0.5403484,0.07398816,0.07773973,0.80804557,-0.38102165,-0.884916,-0.3908542,-0.073738396,0.3712431,-0.093063936,-0.8893262,-0.078627326,0.69468194,-0.2556422,-0.67615575,-0.114086516,0.20554262,1.9474607,0.4702649,0.43773997,-0.54770285,-0.022667151,0.23388174,0.54692477,0.9998865,-0.12864429,0.10098818,-0.7500605,0.7445337,-0.19298738,0.6280579,-0.2811526,-0.8080425,0.1574674,0.4059328,0.2796882,0.35422972,-0.857173,0.24882108,0.42632136,-0.695687,-0.99121904,0.8813305,-0.410413,1.3234278,-1.407547,-1.3512747,-0.98490685,1.1695995,0.8268659,-0.81734383,-0.60669416,-0.39882964,0.33180267,1.5018963,-0.44618002,0.4877444,0.5570159,-0.98618907,0.566756,-0.81516534,0.21331786
hsa-miR-370-3p,0.74299115,-0.37208962,0.46150136,-0.21454573,1.0272084,0.6558301,-0.22044098,-0.25958222,-0.21387476,-0.55833226,1.2263489,0.40200347,-0.28422073,-0.55460495,0.3518369,0.6899918,-0.34160984,-0.048942465,0.07514143,0.41918778,0.2660619,0.5298805,-0.93842244,1.0738161,-0.8928055,0.4412567,-0.5826694,0.69667315,-0.15374027,-0.23579964,0.54585195,0.3140664,-2.3237357,-1.3795127,-0.17373282,0.8639314,-0.5256567,0.17162326,-0.72962147,-0.2753158,0.9810631,-0.14052801,-1.0667682,-0.9325815,1.1816033,-0.5032826,0.50363606,-0.9872833,-0.2877762,-0.11101479,0.31501284,1.1426219,-0.69443625,-0.45913216,-0.22964326,0.72441566,-0.13654734,-0.043423418,0.1611592,0.42742664,-0.08739247,0.6697596,0.9313301,0.29694572
hsa-miR-7113-3p,0.67565495,0.07277008,-0.49035403,0.188043,0.47659925,0.5781015,0.06644465,-0.6827312,0.9373669,1.0768757,-0.30034283,0.5643755,0.1226457,-0.4249748,1.0657167,0.36480883,-1.1713196,-0.5552195,0.41450247,0.8042518,0.2589095,0.15979402,-0.10809202,-0.843358,-0.5969458,1.3075589,-0.69506496,-0.94869274,-0.4502332,0.56353724,1.142707,-0.08959593,-0.28340122,-1.3103544,1.3795966,1.4244735,-0.41608852,-0.3060278,-0.74312943,0.19680132,-0.38239464,0.46303874,-0.588609,-0.3668834,1.195413,-0.7349452,-0.65064895,-0.048660453,-0.49189505,0.24504352,1.931267,0.7927277,-0.04814395,0.17888533,0.15333958,-0.03987238,0.37901735,-1.1450722,-0.06425614,-0.12332325,-1.0487982,0.020198677,-0.28092816,-0.113724306
hsa-miR-93-3p,-0.3131844,0.043100864,0.7631005,0.4644149,-0.028650537,-0.20712177,-0.2230476,0.14158623,0.06432774,1.2113379,0.19472419,-0.55836374,0.09827696,-0.4055513,0.58209115,0.17308445,-0.42895097,-0.754982,0.43938693,1.2648976,0.16391689,0.51202416,-0.1153683,-0.5928965,-1.1979223,1.0181373,-0.8368182,-0.78548354,-0.9643017,-0.06051484,0.38806242,0.67177045,-0.6967488,-0.7306498,0.64126676,0.35801473,0.14525539,-0.27489802,-1.6808991,-0.21836215,0.23401462,-0.09897558,-0.4715724,-0.10615465,1.6086828,-0.4831891,-0.53602076,1.0383503,-0.4829195,0.36083168,0.69690794,1.7171171,0.17238416,-0.116106175,0.036202054,-0.57807523,0.05548509,-0.8688439,0.22722977,-0.46269947,-1.1265363,0.13977386,0.18820398,-0.078288235
hsa-miR-431-5p,0.96852064,0.5653346,1.7837294,0.17913397,0.42652458,0.95832795,-0.6469928,-0.75577164,-0.4022067,-0.86787635,0.82339376,0.4159494,0.08414122,-1.2381432,0.9095017,0.5502243,-1.6800687,-0.020427639,0.913536,0.06773982,1.1859387,-0.10039518,-0.006525653,-1.3383411,-1.3130308,1.5686659,-0.7513754,-0.2745402,-1.2163196,0.6637366,0.11489181,-0.24679755,-1.2208012,-0.20394672,0.3991753,0.6184349,0.7463267,-0.56789535,-0.90494716,0.07854027,0.71733075,0.4212576,0.42147967,0.70342803,-0.09831624,0.3119685,-0.64643115,0.003213006,-1.1749117,0.04318743,0.5595179,-0.1314296,-0.06815488,-0.83163655,0.22244672,0.41711578,0.6672906,-0.61505467,-1.6533296,-0.50551206,-0.8377087,-0.86038315,-0.57365954,0.30409446
hsa-miR-3689d,-0.056791343,-0.20885472,0.5204683,-0.101676464,0.27078626,0.29988116,-0.58850104,-0.29766345,-0.20114282,0.13983746,0.018570667,-0.66113955,-0.34539738,0.36688572,0.50002253,1.2145716,-0.3068895,0.70642155,0.8704539,0.24419373,0.030246235,0.25770378,-0.4949553,-0.14849576,-0.8423411,-0.10068103,-0.42302573,-0.7701865,-0.67889374,0.065235004,-0.6745533,0.07141573,-1.0071722,0.09749579,-0.23049603,-0.11180198,0.7261784,0.23202796,0.33755317,-0.22173703,0.4089282,-0.37535828,-0.63880736,-0.4498628,0.35794377,-1.0838003,-0.3932204,0.37306044,0.3359429,0.051610097,1.4194013,-0.1665943,-0.20385171,0.71293145,0.053701367,0.19301237,0.35243,-0.30160296,0.10213974,1.2639066,-0.36070946,0.1446051,-0.1548887,-0.12581973
hsa-miR-1273h-5p,0.10537439,-0.08573325,0.7611923,0.21427771,0.3952031,0.36741582,-0.42131814,-0.6849107,-0.46225864,0.38492084,0.6936406,-0.08513734,-0.91930133,0.11115532,0.71872205,-0.22033508,-0.7903222,-0.048158485,0.3101719,1.8769495,0.20462829,0.44726685,-0.73406905,0.3561018,0.28869364,0.48783228,0.9426592,0.06765474,0.22302465,-0.5576337,0.65952444,-0.3406465,0.9382925,-0.4026284,-0.8631907,-0.08890658,0.47249448,0.19354093,0.105600946,-0.8009062,0.26896155,0.62466645,-0.85714394,-1.1078243,0.904446,-0.37337497,1.33206,-1.1785014,-1.3281032,-0.7820924,1.4528219,0.7703954,-0.8433355,-0.68978626,-0.5306595,0.15229222,1.4564948,-0.55305946,0.17413205,0.49717614,-0.8146706,0.7761097,-1.1835179,0.28895184
hsa-miR-6865-3p,0.64385366,-0.1715439,0.2123674,0.18655775,0.3164299,-0.24122705,0.28415123,0.26835826,-0.2386249,0.19870743,0.4196727,-0.44452503,0.19985,0.24091883,0.3265352,1.0404894,-0.40665218,-0.120432705,-0.3600021,0.8133617,0.579059,0.3467679,0.018444685,-0.09985141,0.017854908,0.34693012,-0.024338264,0.08491817,-0.42110357,-0.12434804,-0.7180555,-0.04761922,-0.4395072,-0.6852122,-0.51446474,-0.21098883,-0.4344007,0.43306318,0.5647268,0.65503776,-0.24418165,-0.04112473,-0.008989123,-0.05157462,0.30750862,0.10395571,0.3088612,0.05059039,0.027769448,0.21789046,0.1016806,0.23060822,0.04566787,0.24014133,0.34401396,0.24849015,0.63125736,-0.90082407,-0.529413,0.540904,-0.116899945,-0.6264798,0.29964322,-0.008535812
hsa_circ_0020316,-0.07318823,0.041972883,0.29093105,-0.14318678,-0.055875216,-0.07677166,-0.11311329,-0.015169933,0.23756632,0.21189237,0.14897275,0.3229028,0.19475666,0.10466957,-0.10981936,-0.11358054,-0.13129516,0.15640834,0.062071025,-0.005280734,0.07413797,-0.12982316,0.10369703,0.16962251,-0.2676091,-0.02012531,-0.33278933,-0.2001218,-0.27711746,-0.13315052,0.15166724,0.08768125,-0.2421614,-0.13944349,0.23945816,-0.2541762,0.12548736,0.1943213,0.17149913,0.04314283,0.1999414,0.41685897,0.042492088,-0.2340892,-0.28469235,-0.23036565,0.1636502,-0.0484279,-0.2879838,0.05528063,0.12921526,0.124576375,-0.23987281,0.01614815,0.36081016,0.2865538,0.27169186,-0.06593554,0.27440923,-0.118747376,0.1807628,-0.39453676,0.014660561,0.14197676
hsa-miR-4781-5p,0.62027484,-0.3323857,0.29232642,0.050970543,0.3797073,-0.33668983,0.1802902,0.28398818,-0.1605451,0.2905589,0.5874945,-0.44979236,0.10176223,0.13913599,0.39821792,1.0961277,-0.32831585,-0.19913478,-0.4262144,0.7916307,0.6887569,0.38665608,0.06725819,-0.06744898,0.06329529,0.3628286,-0.04048884,-0.06241402,-0.34725133,-0.1099441,-0.5389999,-0.08228286,-0.41726032,-0.6441885,-0.5126751,-0.118015476,-0.3275929,0.4928052,0.55248576,0.5811839,-0.25548038,-0.14793538,0.034803223,-0.015717095,0.3627394,0.17930478,0.20323485,0.08475731,0.1007742,0.13342255,0.103797734,0.2082622,0.040143702,0.1459712,0.29910013,0.2576401,0.6312561,-0.77124184,-0.45685202,0.55714226,0.034955643,-0.72540575,0.25228462,-0.009748955
hsa-miR-297,-0.46651807,0.06364565,0.8462152,0.45153037,-0.3676183,0.34883317,-0.5431555,0.29774538,0.003239663,0.8474343,0.258433,-1.265426,-0.21597056,0.07988785,-0.0421445,0.7835833,-0.3265477,-0.1476142,-0.4344027,1.2489437,0.039330248,1.2634447,-0.5432765,-0.27462533,-1.1836232,0.89923507,-0.9617424,-0.2995542,-0.4651914,-0.37691832,0.030316181,0.5891318,-0.9998025,-0.29435194,0.118030824,0.3665833,0.3801799,-0.69582605,-1.2485794,-0.19038583,0.5309516,0.11121899,-0.7446443,0.119171,1.0412724,-0.037175022,-0.24977475,0.36564618,-0.63429874,0.42784882,1.0122979,1.4033668,0.23723972,-0.16656525,0.03908078,-0.32299665,0.35515723,-0.40601444,0.21046542,-0.93027383,-0.90124494,-0.007557815,0.80341226,0.24212548
hsa_circ_0089771,0.04020477,0.11587895,0.27165535,-0.12874143,-0.13448195,-0.12345682,-0.06382755,0.037315927,0.17640369,0.23076285,0.17368667,0.26895386,0.13007756,0.1098368,-0.15063567,-0.15653749,-0.1268205,0.19273533,0.08563213,-0.007029989,0.04583746,-0.10089053,0.15212426,0.14787135,-0.22931787,0.025700321,-0.28396264,-0.22026162,-0.30908543,-0.20028307,0.17871183,0.10334132,-0.30923155,-0.108523466,0.26563698,-0.1851611,0.13535291,0.13051498,0.22717069,0.01148505,0.11472673,0.35995024,-0.025155649,-0.211444,-0.33520222,-0.22554693,0.08382319,-0.007326115,-0.30563125,0.052705925,0.15332934,0.25449666,-0.26969063,-0.000581187,0.34488776,0.32914016,0.20260157,-0.05208802,0.28323188,-0.13058756,0.20744938,-0.43141338,-0.09977127,0.19905902
hsa-miR-6745,0.6198618,0.5245287,0.7487029,-0.32469845,-0.69666135,-0.55829376,0.22938707,-0.18406631,-0.3207136,0.16711347,0.69671476,-0.45766777,-0.4752227,-0.47331673,-0.3294545,0.62096435,0.40249428,0.088379905,0.22295634,0.8091457,0.19620468,0.51719826,-0.5958699,-0.38462257,-0.44286814,0.31495768,-0.63996524,0.27406967,-0.3757564,0.35241348,0.5796499,0.1661192,0.193904,-0.15270115,0.095451035,-0.09084358,-0.45716292,-0.17586318,-0.5744943,0.40055484,0.5164313,0.20684601,-0.013398718,-0.094575495,0.6488393,-0.79301226,0.34307107,-0.5277508,-0.29345953,-0.39910725,0.49856374,-0.30138093,0.9381455,0.19015841,0.9472761,0.80878395,0.6496077,0.055239137,-0.4226767,0.85868675,-0.10129279,-0.35457104,-0.23347491,-0.6078198
hsa_circ_0038404,-0.04895735,0.04237468,0.34702754,-0.10710291,-0.08268448,-0.04538286,-0.10977955,0.069124356,0.24860413,0.23193568,0.17107938,0.34449616,0.18038706,0.13159959,-0.11645592,-0.08973547,-0.0875376,0.11094112,0.014111474,-0.011064016,0.05017074,-0.09091424,0.08982264,0.13846558,-0.24732655,-0.004878291,-0.39158088,-0.20663203,-0.30550477,-0.159649,0.16043197,0.08218813,-0.2843792,-0.10952241,0.23525465,-0.29099175,0.069968306,0.18193841,0.10980709,0.00788582,0.1147053,0.34269398,0.019973427,-0.23203425,-0.32822376,-0.20504247,0.17746876,-0.090391524,-0.25136808,0.07921742,0.12798063,0.17853881,-0.30011085,0.002275958,0.27762994,0.33880812,0.21667351,-0.089440174,0.21514429,-0.111345276,0.20424569,-0.38380337,-0.10789614,0.16201341
hsa-miR-6825-5p,0.24176662,-1.0050161,0.88096833,0.73668575,-0.48089916,-0.069887705,0.7894941,-0.112884484,0.5765019,0.18670166,-0.20197323,-0.09369746,0.070912905,-0.31938505,0.8365171,1.4532844,0.043499753,0.39894885,0.48504913,0.8313998,0.13753687,-0.44019648,-1.0165809,-0.3530553,-0.7640465,1.0068392,0.3513501,1.3356797,-1.3518444,-0.49812728,0.76967967,0.21016087,-0.33514357,-0.6133541,0.078169376,-0.17660485,0.2596841,0.3263331,-0.49100515,-0.23973061,0.5023135,0.38570526,-1.5287457,-0.22997385,0.24710721,-0.35284525,-0.13791339,0.7832344,0.4782235,-1.4481153,0.43727016,-0.62981075,-0.5645967,0.10241231,-0.36701822,1.4760739,0.76223946,-0.55324614,-0.30282497,-0.6680746,-0.66085786,-0.16822787,0.24812825,0.29819882
hsa-miR-149-3p,0.042208634,-1.1081276,0.53891784,0.59843767,-0.6621466,0.124513164,0.9402358,0.2067677,0.5035046,-0.31636408,0.3606286,0.050117895,0.29946864,-0.20776606,0.8034621,1.6295456,-0.04828728,0.5108373,0.30997017,0.7442008,-0.2820773,-0.6995046,-0.94778323,-0.124594264,-1.0267551,0.86504024,0.20807059,1.5151819,-1.4582666,-0.58953255,0.942264,-0.057458576,-0.34988114,-0.44002017,-0.31690225,-0.19075458,0.4528662,0.29524034,-0.6009008,-0.26268068,0.6291515,0.120477095,-1.725923,-0.122162655,0.37622032,-0.6548274,0.18192673,1.0440785,0.70347655,-1.2199001,0.6326668,-0.041158378,-0.41377988,0.1942604,-0.37751836,1.1615734,0.5799534,-0.8249016,-0.5193213,-0.40562445,-0.5978232,-0.467886,0.24779512,0.21672218
hsa-miR-6870-5p,0.7315829,-0.14876533,1.112066,0.056848615,0.82910746,1.0877978,-0.055609055,-0.265181,0.106593825,0.4775253,1.0471767,-0.26967916,-0.06601557,-0.6144551,0.124649145,0.81039935,-0.40402707,0.2556434,0.16392565,0.26007047,-0.054800097,0.92999274,-0.18189707,0.89553624,-0.60632443,0.54098576,-0.55912846,0.9034612,0.14588353,0.2905551,0.1714169,-0.011831039,-2.3644192,-0.4929425,0.6256979,0.64453596,-0.5426031,0.5976583,-0.6074687,-0.5555561,1.2775924,-0.06464907,-0.49778616,-0.8547068,1.720366,-0.25838974,0.60720235,-0.89648974,-0.1653092,-0.65284026,0.36266476,1.1139293,-0.49248746,-0.69486934,0.1976501,0.25702786,-0.3776386,0.033449892,0.37334308,0.43556467,-0.7011024,0.39741316,0.99018687,0.45020962
hsa-miR-1266-5p,0.058377963,-0.2987601,0.70840967,-0.21587126,0.33269748,0.24391934,-0.5752729,-0.059679832,-0.23951252,0.13518007,-0.04501458,-0.7647793,-0.45090663,0.33457324,0.71697813,1.0211223,-0.1802668,0.93190485,0.6430196,0.22979127,0.081416264,0.23341273,-0.5648461,0.020242898,-0.81105053,-0.12759924,-0.4524411,-0.8852286,-0.66057414,0.15976766,-0.54213625,-0.17334743,-0.8715998,0.05158415,-0.26140147,-0.2014469,0.76730627,0.46413755,0.12315981,-0.2794724,0.4895829,-0.36868826,-0.7134675,-0.55801594,0.4530191,-0.9475131,-0.4598467,0.31472528,0.33034414,0.06705031,1.3005136,-0.19502391,-0.2630795,0.9537546,0.30109563,0.15790024,0.32115215,-0.30063367,-0.070980094,1.1036376,-0.3955965,0.15443656,-0.29642048,-0.23599553
hsa_circ_0002326,0.006643307,0.0886584,0.24200305,-0.07782643,-0.09899705,-0.12572096,-0.14864111,0.06464976,0.19531173,0.20472576,0.16236816,0.30965185,0.16966568,0.11081085,-0.1295611,-0.07899154,-0.09941457,0.10224782,0.13910262,-0.014398169,0.000250273,-0.10429111,0.12410973,0.10304575,-0.30609712,0.0465117,-0.30816212,-0.22150166,-0.27449092,-0.2225493,0.085036784,0.12583143,-0.24893571,-0.13331437,0.25123635,-0.23535429,0.09297095,0.16241717,0.20200297,-0.001993333,0.13787664,0.40356714,0.038876113,-0.18194543,-0.33518708,-0.28306872,0.12888712,-0.0971496,-0.23721603,-0.003091176,0.13839653,0.19402938,-0.30209783,-0.008806042,0.32821697,0.26311105,0.27308908,-0.050991215,0.2589553,-0.15014423,0.23442176,-0.42437276,-0.018932682,0.21083693
hsa-miR-6757-5p,0.14268732,-0.31920838,0.5495622,-0.25370687,0.22745185,0.26806676,-0.74783546,-0.12146704,-0.10892279,0.11704774,0.1471943,-0.6977983,-0.43915176,0.45601976,0.61443394,1.116266,-0.1726415,0.66377634,0.7860776,0.23823035,0.041302513,0.19889922,-0.43699643,-0.1383371,-0.88208747,0.0131074,-0.46572208,-0.9332336,-0.62338364,0.17498302,-0.73795325,-0.21108185,-0.90005076,0.2077752,-0.20294425,-0.08692509,0.7497978,0.37322864,0.23132595,-0.20327102,0.5042943,-0.34477153,-0.73670983,-0.44892746,0.47450858,-1.0227963,-0.23529206,0.322356,0.28338832,-0.027555194,1.3217736,-0.2798187,-0.15410446,0.89723885,-0.07504758,0.3547832,0.2886603,-0.39375758,0.003599188,1.1648114,-0.33929956,0.21912988,-0.0921615,-0.111086056
hsa-miR-5591-5p,-0.007479414,-0.19816104,0.57251745,-0.105462104,0.31117082,0.2673477,-0.5683326,-0.026420446,-0.054523617,0.12239647,-0.038182847,-0.7221119,-0.20939839,0.42039365,0.57268405,1.088907,-0.36759546,0.6986321,0.86506224,0.19015527,0.096600816,0.35141173,-0.50601196,-0.12470762,-0.80472225,-0.004282591,-0.50436276,-0.88553876,-0.53602284,0.13223913,-0.56747246,-0.26635665,-0.9229587,0.2796228,-0.2303576,-0.17511968,0.7733322,0.37961027,0.24163975,-0.18493564,0.4625306,-0.3469844,-0.89923203,-0.5575316,0.55344963,-1.0633507,-0.32592785,0.27732873,0.24009012,0.19337395,1.2935425,-0.27699736,-0.33923525,0.84983534,0.18470956,0.3493137,0.29322213,-0.29392725,-0.008769038,1.2203107,-0.39330947,0.2252939,-0.122157775,-0.17731875
hsa-miR-1913,-0.29628685,-0.31949803,0.9263255,0.51951385,-0.36946464,-0.43934688,-0.22150154,-0.09268352,-0.63603586,0.12073133,0.98054314,0.5533742,-1.3913693,-0.64565116,1.1697183,0.14634314,-0.39777955,-0.14733529,-0.25491828,1.1157097,0.58766556,0.7794292,-0.5464789,-0.021643128,0.36004442,0.8788927,-0.10947453,0.47779012,-0.29729372,-0.63761467,-0.21886072,-0.5204601,0.16835976,-0.21630462,-0.7176904,-0.55532044,-0.11811617,-0.264894,0.3361735,-0.49994126,0.09515122,1.0041238,-0.7034636,-1.161285,0.684663,-0.73205537,0.50494,-0.029486036,-0.6153004,-0.7277231,0.9016505,0.11946352,-0.7888744,-0.17955118,-0.071714,0.18931666,1.4829717,-0.5420975,0.92046815,0.5385754,-1.6205688,1.0401804,-0.018285213,0.26155308
hsa_circ_0014209,0.010025919,0.04799043,0.31347966,-0.121244945,-0.10873043,-0.13268077,-0.14559643,0.054090533,0.17540441,0.19996189,0.23725288,0.32852274,0.15376416,0.1276368,-0.10746105,-0.12364847,-0.14859279,0.14520524,0.05542314,-0.000704217,0.08058797,-0.10490878,0.10728849,0.17801075,-0.2627011,0.067419894,-0.38229302,-0.1603994,-0.2526104,-0.2006417,0.19112097,0.055148337,-0.2811523,-0.081554405,0.24489252,-0.21854742,0.13795207,0.17888162,0.18070894,0.04475188,0.09432936,0.31316108,0.023071142,-0.215066,-0.35015383,-0.26978964,0.12912865,-0.06140644,-0.24182776,0.048412256,0.121501915,0.23273185,-0.28093362,0.032877307,0.32278854,0.26046854,0.21793336,-0.046518013,0.25458682,-0.22221658,0.1444965,-0.4232092,-0.048678696,0.12357996
hsa_circ_0014210,0.022562608,0.054006286,0.31697252,-0.16536961,-0.092125975,-0.14738064,-0.10323107,0.015243213,0.18940654,0.2365932,0.16389877,0.35578698,0.18237805,0.11933244,-0.085727915,-0.11969535,-0.1425099,0.18168505,0.10281982,0.055556018,0.057709996,-0.12846197,0.08031577,0.14611599,-0.2512908,-0.014941931,-0.31874278,-0.24499938,-0.35547802,-0.1631611,0.14361188,0.027763657,-0.25835535,-0.099391714,0.24432735,-0.22440925,0.09699552,0.1792979,0.15028267,0.00724778,0.124488026,0.31875122,0.057125915,-0.2720838,-0.27865237,-0.20045418,0.09148943,-0.09675359,-0.22026683,0.06092734,0.10578926,0.19297685,-0.31322902,-0.017321903,0.3197388,0.29732138,0.24293637,-0.015599383,0.30798593,-0.19567224,0.22941062,-0.4234617,-0.013791511,0.16819127
hsa-miR-6804-5p,0.6513741,0.46023592,0.7565316,-0.52620703,-0.7522405,-0.5804142,0.24777776,-0.3343821,-0.22862121,0.12526435,0.7279293,-0.5113389,-0.3125095,-0.48877096,-0.13706611,0.47817266,0.59295017,0.04167441,0.29689965,0.7828215,0.21706876,0.8400217,-0.43246493,-0.3073099,-0.30608398,0.18995956,-0.5601514,0.3818101,-0.37800738,0.47310755,0.6901194,0.15080297,0.039654084,-0.09291167,0.059209287,0.14147742,-0.2791049,-0.36830533,-0.41269052,0.46018115,0.5116053,0.24582545,-0.08028205,-0.08889442,0.59483886,-0.6907377,0.39165255,-0.49682754,-0.063922904,-0.2843772,0.6416791,-0.26197535,0.74885076,0.03678196,0.937389,0.8734206,0.83294594,-0.021054277,-0.39993834,0.8871504,-0.10671885,-0.27927375,-0.30872244,-0.52364874
hsa-miR-4518,0.21016976,0.21067464,0.4672636,0.2272352,-0.54012775,-0.006973028,0.039338086,0.58975977,-0.3567001,-1.0068519,0.44117382,-0.1407126,0.007637366,0.82374144,-0.25482738,0.68908036,-0.5283735,0.6149159,0.5057599,0.97683984,1.1472895,0.36695257,0.43572024,-0.91835064,0.30063912,0.17317262,-0.5225136,0.20973033,-0.3943504,0.5428209,1.0225648,0.3255924,-0.33017242,-0.23095407,-0.4629967,0.27600554,-0.16414207,0.61727065,-0.7491456,-0.8371483,0.50928605,0.6177429,-0.07886981,-0.24861887,1.1348656,-0.1221939,-0.1117167,-0.78106165,-0.43895543,-0.4575098,0.8911902,-0.22555348,0.43152428,0.15640996,0.29571676,-0.1603553,1.1136334,-1.4335457,0.38758102,0.120677166,0.5119431,0.21551122,-0.68764627,0.9442837
hsa-miR-6133,1.1053625,-0.32918078,1.3486458,-0.044237807,0.1668073,0.718816,0.040852156,-1.3765688,0.097940065,0.014762862,-0.33031848,0.36001113,0.16678248,0.55588,-0.6104496,0.052022707,-1.4514176,-0.21796282,-0.4130629,0.2691928,0.7194823,-0.5326691,-0.31079367,-1.547177,-0.7261828,1.9014456,-0.6809706,-0.38766038,-0.46314004,-0.021639083,0.6055448,-1.0097126,-0.9335243,-0.8454365,0.47326025,0.3501747,-0.84053624,-0.73756295,-0.76541615,0.14793222,-0.024784328,0.60434777,-1.2083812,-0.000686755,0.66438746,-0.005682611,-0.12846617,-0.005701254,0.4843262,-1.3312013,1.6108304,0.48844078,-0.43405676,-0.26421732,0.042789135,-0.6971793,0.3670435,-0.111051574,-0.3772691,0.6356985,-1.4000846,-1.234502,-0.8091291,0.19567972
hsa-miR-7111-5p,0.9590823,-0.73360693,0.2759085,-0.051682893,-0.33036476,0.3314997,1.005545,0.39015758,0.20450313,-0.13719703,0.54207116,0.09868715,0.3375436,-0.79425305,0.5104219,1.5445924,-0.35111687,0.18414493,0.31884217,0.6608919,-1.0854454,-0.9059723,-0.10071912,-0.12973805,-0.99590737,0.20327538,0.15244348,1.3622328,-1.3221403,-0.07568922,1.230188,-0.5537851,-0.93132585,-0.68376535,-0.14831138,0.11842275,0.21601121,0.5409869,-0.3723939,-0.79258275,0.92737,0.09898807,-2.0329356,-0.13787748,0.84491175,-0.9384436,0.08888369,0.19638315,0.2421994,-0.81512946,0.35869333,0.21446262,-0.56814957,-0.14363396,-0.13323893,0.77009964,0.72214544,-1.1182619,-0.11148076,-0.5362948,-0.8166121,-0.17732933,0.36319423,-0.20628193
hsa_circ_0044512,0.004773095,0.046365265,0.3206597,-0.101289526,-0.073659405,-0.08976649,-0.111373,0.08400046,0.18909688,0.2813001,0.15666258,0.355804,0.20089607,0.14379627,-0.09131712,-0.15480857,-0.13892472,0.15845077,0.03116391,-0.048115976,0.027954223,-0.09902721,0.08290119,0.11044636,-0.25854447,0.041224774,-0.33703268,-0.24550062,-0.35948026,-0.14110251,0.15221003,0.027361767,-0.30355626,-0.11971868,0.20109984,-0.23625836,0.14473453,0.26979622,0.10210768,0.001040461,0.1493069,0.34788623,0.060750943,-0.19220568,-0.28714177,-0.19689173,0.14173083,-0.012592901,-0.28621784,0.022150185,0.08602997,0.142464,-0.2702395,-0.000477567,0.38118342,0.2886631,0.2487536,0.02363117,0.30051216,-0.123098575,0.19114493,-0.41112494,-0.04750307,0.20124088
hsa-miR-6767-5p,0.001611417,-0.47882834,0.5357223,-0.23448177,0.36349866,0.21786495,-0.72412026,-0.067888275,-0.22720869,0.11331793,0.11743754,-0.67310613,-0.48343053,0.3974485,0.53947073,1.0486823,-0.36918035,0.61226124,0.83406067,0.23149626,0.06966434,0.21223381,-0.43710506,-0.060360152,-0.7857959,0.012561853,-0.30554566,-0.8961855,-0.60094887,0.23851234,-0.6403591,-0.10243694,-0.8669803,0.236039,-0.08235191,-0.25175005,0.71788555,0.23033816,0.2529391,-0.19239365,0.47481054,-0.2757305,-0.7891041,-0.53380936,0.51758134,-1.0585849,-0.34453335,0.17234696,0.3685731,0.011476919,1.3765384,-0.26748177,-0.13141948,0.91530573,0.23436126,0.29818434,0.2489569,-0.47963008,-0.017511372,1.0892458,-0.42219386,0.15193555,-0.098324984,-0.13862826
hsa_circ_0044522,0.15200101,-0.019341253,0.3513099,-0.2940633,-0.053056356,-0.1480242,-0.26683238,0.031731773,0.005581684,0.22277978,0.13665697,0.2760724,0.113267876,0.035740286,-0.26838735,-0.003085823,-0.30427483,-0.06616365,-0.041868392,0.007727148,0.124591015,-0.21957286,-0.12002672,0.2611253,-0.09541655,-0.024705421,-0.53413755,-0.16004698,-0.41836405,-0.25182858,-0.015783459,0.2597202,-0.01623722,-0.10683472,0.42610908,-0.12261263,0.04329417,0.32923344,0.24608134,-0.20721096,0.1512231,0.21174541,0.17476083,-0.1114821,-0.35625097,-0.14455156,0.11034018,-0.09398287,-0.09551915,0.04286179,0.3228363,0.11932275,-0.19134454,-0.085397534,0.37251624,0.027298355,0.28599262,0.03394789,0.10565829,-0.22330827,0.31647635,-0.123264775,-0.022710672,0.088615954
hsa-miR-1185-1-3p,0.60807925,-0.21366622,0.28166568,0.20835255,0.33485427,-0.3362446,0.16125304,0.34106043,-0.28434354,0.3237288,0.58676064,-0.40836388,0.19291633,0.09899103,0.29818663,0.9152583,-0.4209564,-0.07134265,-0.37417078,0.76289845,0.6073375,0.3374224,0.08536901,-0.06268588,-0.12525475,0.4575609,-0.038703345,0.09170894,-0.3246052,-0.054754872,-0.64478165,-0.087640725,-0.41913995,-0.6920108,-0.5701895,-0.27119297,-0.3691975,0.54480815,0.6236599,0.55131924,-0.25238797,-0.061338518,-0.043568883,0.002867566,0.36123258,0.26110303,0.22021219,0.099835314,0.1711902,0.2197369,0.12421331,0.1850532,0.2074347,0.15910307,0.31846786,0.22606531,0.67115897,-0.82697046,-0.5739421,0.59328765,-0.09411264,-0.6194206,0.23691808,-0.10699202
hsa-miR-4763-3p,0.13979456,-0.35332987,0.48755947,-0.09821803,0.10430625,0.57596123,-0.21651721,-0.82107013,-0.21869631,0.22777052,0.56049335,0.06627368,-0.91549253,-0.23078284,0.9597241,-0.41058478,-0.65194243,-0.025051365,0.57465494,1.8314586,0.20535249,0.49483472,-0.62890875,0.16431588,0.3896233,0.2940232,0.78102684,-0.062770315,-0.052148756,-0.6928228,0.655281,-0.047602154,0.80109686,-0.29144874,-0.9969929,0.034905702,0.3347421,0.62409735,0.16399792,-0.7199809,0.5512331,0.55897284,-0.6659857,-0.9499095,1.1786437,-0.1708854,1.6101881,-1.2960352,-1.1304963,-1.038367,1.294034,0.6406572,-0.68891156,-0.7237483,-0.51973724,0.1317524,1.3740845,-0.61836267,0.19472682,0.44952735,-0.98626256,0.46323535,-0.9875597,0.19140227
hsa_circ_0082878,0.12223852,0.12638187,0.3791039,0.054772414,0.04303202,0.017096281,-0.018035103,0.13564563,0.12573703,-0.11536636,0.08437509,0.14314885,0.01995127,0.027090669,-0.3376462,-0.34257483,-0.14341885,-0.19217405,-0.04149806,0.084158815,0.088443734,0.001378093,0.003085348,0.48685125,-0.24379125,-0.17427504,-0.3793002,-0.20912443,-0.39887908,-0.42008987,0.18006061,0.045023106,-0.14083931,-0.019341797,0.17879213,-0.036513522,-0.0656057,0.14946736,0.12127244,0.06476091,0.2607258,0.31365472,-0.002927231,-0.09368318,-0.35383913,-0.36916086,0.304554,0.09427093,0.017518194,-0.05666653,0.31381193,0.2946975,-0.13311906,0.41225213,0.12776706,0.13137811,0.14755754,-0.30679488,0.0407928,-0.33256915,0.1320277,-0.2678858,-0.24599555,-0.14767617
hsa_circ_0082879,0.17113565,0.31087393,0.2517957,-0.006015424,0.018364739,-0.18152235,-0.17170218,0.03236102,0.044930276,0.071901105,0.08663563,0.0518489,0.2984161,0.06587065,-0.2930321,-0.380053,-0.12016846,-0.1872768,0.03052752,-0.08274721,0.32685953,-0.19998315,-0.15642326,0.33323008,-0.046151806,0.066985205,-0.4271467,-0.1628132,-0.30216953,-0.54053336,0.04828432,-0.13514023,-0.21744713,0.04483221,0.39767528,-0.14136031,-0.029165266,0.19112298,0.1452762,-0.1127981,0.19793369,0.22568107,-0.067848496,-0.29142603,-0.3650747,-0.21059997,0.015125448,-0.071622215,-0.20201407,0.12243622,0.23233157,0.025104718,-0.12141105,0.08676785,0.22795498,0.27990836,0.33522525,-0.2560012,0.1098891,-0.18223596,0.1263168,-0.15770558,-0.13216232,-0.07256345
hsa-miR-4534,0.59313834,-0.27321103,0.20530158,0.13034645,0.34101382,-0.31036463,0.21478102,0.27397904,-0.31923622,0.31437954,0.6188074,-0.5786131,0.14561076,0.17385913,0.36295378,1.0151883,-0.41146874,-0.14088123,-0.39775327,0.8210661,0.71170706,0.3269238,0.09276831,-0.07474466,0.021258364,0.35242465,-0.11346683,0.007876449,-0.3450272,-0.13338442,-0.59413433,-0.034237992,-0.38282502,-0.72935104,-0.54027045,-0.13390195,-0.23375948,0.36354548,0.49067578,0.6480333,-0.21255916,-0.09856488,-0.030161692,-0.03902484,0.27224532,0.13798533,0.14788085,0.10946328,0.11098936,0.11705074,0.14802407,0.21505234,0.075930074,0.0344572,0.25527167,0.27929375,0.61100197,-0.82209605,-0.4322633,0.61426735,0.103970595,-0.68297434,0.24723074,-0.06468574
hsa-miR-324-3p,0.47207513,0.47573894,0.8123646,-0.40897128,-0.6114055,-0.55572826,0.3181795,-0.17951794,-0.26416063,0.1304109,0.91655344,-0.51623523,-0.40226898,-0.5051139,-0.26943624,0.604598,0.45095915,0.032700695,0.11964805,0.79616064,0.2768733,0.6037149,-0.46015123,-0.27176097,-0.27435663,0.31990635,-0.5653956,0.14909412,-0.40516686,0.33791453,0.66276425,0.08768673,-0.02510281,-0.23639382,-0.01383377,0.09803404,-0.17626968,-0.42392358,-0.5647943,0.41068986,0.41412148,0.16732033,-0.098135844,0.11824513,0.59486145,-0.91904515,0.4343982,-0.46647853,-0.24490221,-0.43504205,0.53051454,-0.34820628,0.93443686,0.08219349,0.88487965,0.7995787,0.64319366,0.030374257,-0.42699456,0.87054634,0.08175478,-0.25436062,-0.30091038,-0.57882696
hsa-miR-3160-3p,0.4763164,0.22544998,0.762501,-0.4638635,-0.656897,-0.6509322,0.32097188,-0.23661384,-0.28388664,0.1541568,0.72299725,-0.534863,-0.41196048,-0.45373175,-0.19084738,0.50673604,0.39821917,0.10746278,0.31762818,0.75785285,0.25096554,0.65259707,-0.42297703,-0.4173092,-0.3976732,0.31034502,-0.5521004,0.2960506,-0.5108033,0.32854894,0.5965374,0.19332881,-0.08213079,-0.17854321,-0.01890398,0.056012947,-0.45804712,-0.33609837,-0.47573113,0.45737305,0.51908654,0.24239656,0.040367175,0.002418909,0.47663045,-0.96884847,0.43947786,-0.5756438,-0.05305235,-0.32222134,0.5617485,-0.27367717,1.0304283,-0.15929405,0.8119705,0.85221905,0.7335582,0.118288524,-0.4929274,0.8884057,-0.03794571,-0.20485377,-0.32396048,-0.58196104
hsa-miR-6862-3p,0.83119816,-0.3773163,1.4026769,0.34067217,0.05561373,0.68912715,0.153651,-1.1094619,0.47925267,0.000721069,-0.4064327,0.42434615,0.19036831,0.4065984,-0.070975386,-0.04608612,-1.1271684,-0.25269896,0.08093825,0.26040152,0.7734194,-0.6192208,-0.44570032,-1.5155863,-0.82856363,1.6863188,-1.192128,-0.16908859,-0.026879141,-0.033286978,0.39336902,-1.2089634,-1.1377103,-0.6857831,0.28803545,0.6051836,-0.65485966,-0.85100496,-0.84074885,0.17071132,-0.18080266,0.52992266,-1.1662579,-0.149765,0.42166346,0.1682853,-0.122380294,-0.10788141,0.30209535,-1.3068027,1.5274593,0.8352926,-0.13284393,-0.035310518,0.4153046,-0.57049817,0.6938327,-0.11762264,-0.3010847,0.7321997,-1.3508297,-1.1278427,-0.97561145,0.05398519
hsa-miR-6794-5p,-0.20930423,0.41350207,0.6911015,0.72927624,-0.09310203,-0.30290905,-0.06116649,-0.0004947,0.10831711,0.8553429,0.35741934,-0.7910765,0.14201067,-0.21404204,0.6370475,0.16422376,-0.12013164,-0.5590497,0.50359476,1.2183716,-0.16146035,0.36560205,-0.3308983,-0.6685838,-1.2092683,1.2967107,-0.98660654,-0.8322389,-0.79591995,-0.16013712,0.48078918,0.50537354,-0.82928866,-0.63533443,0.7031386,0.30027643,0.18312761,-0.51105034,-1.5682049,0.08273845,0.16658814,0.014366505,-0.48395503,-0.33466262,1.5413179,-0.22821283,-0.31663257,0.93549985,-0.5364105,0.44216225,0.66272724,1.6033672,-0.023716582,0.055668425,-0.14339522,-0.4003739,-0.003189846,-0.99289316,0.061356038,-0.3863283,-1.1692485,-0.05186082,0.26010638,0.21094823
hsa-miR-6127,0.12950394,-0.058423653,0.13520853,0.05265207,-0.28332034,0.22712764,0.408427,-0.8463012,-0.6616649,-0.45384476,0.92617136,-0.21716377,0.87088776,0.43217555,0.20019053,0.8454103,-0.50168866,0.15020187,0.10647227,0.3908553,-0.05817995,0.9913631,-0.15390472,-0.63490885,-0.012802988,0.8709584,0.24765807,-0.39242315,0.057836074,-1.1920594,-0.40986437,0.21093093,0.42641196,-0.6048881,0.6601849,0.54403114,0.21198022,0.89732003,-0.33765906,0.7008305,0.9031101,0.4913083,0.15840228,-0.006530464,1.2107785,-0.17971389,-0.105541766,-0.5124122,0.20118429,-0.4926401,0.6472343,0.58276147,0.5821495,0.6584388,0.508433,1.0644106,1.3956715,-0.4387147,-0.015752079,-0.17837209,0.42723864,0.49807805,-1.1920174,-0.4830401
hsa-miR-6870-3p,0.32948858,0.057958454,0.39770672,0.15422711,-0.31681657,-0.009819079,0.5007569,-0.8526304,-0.3840979,-0.552724,0.86757857,-0.25757256,0.9208333,0.33315632,0.18579985,0.8793676,-0.450428,0.14623311,0.09362109,0.53620267,-0.22908142,1.0057299,-0.11558871,-0.39919433,-0.04983989,0.9834881,0.30057874,-0.6442794,0.16635957,-1.0393205,-0.41977116,0.003641457,0.4979237,-0.84856,0.5641898,0.32214087,0.17717001,1.1306806,-0.3536634,0.38068002,1.1187893,0.31723312,0.09542196,0.14611141,1.2145387,-0.102743104,-0.19089565,-0.60579556,0.19298303,-0.49124828,0.5491747,0.59503615,0.6619485,0.5936861,0.58115214,0.97258997,1.3267387,-0.40091354,-0.001417177,-0.18283391,0.3314667,0.43331787,-1.268259,-0.41017258
hsa-miR-6832-3p,0.21992192,-0.001860435,0.23570384,0.1572778,-0.2847727,0.13877477,0.4810131,-0.5841348,-0.5296437,-0.5137027,0.75750226,-0.07128694,1.0693549,0.28729084,0.31298962,0.92011887,-0.4804513,0.062074203,0.022627626,0.6102547,-0.2214118,1.053018,-0.15189524,-0.349159,-0.07009705,0.8808368,0.26761723,-0.58802193,0.2865241,-0.9750543,-0.41895995,0.08831474,0.3943759,-0.5919767,0.5443015,0.44312766,0.23356776,0.8856173,-0.46912208,0.5311517,0.87693834,0.48328686,0.1462237,0.10509092,1.1957965,-0.114362136,-0.13835254,-0.47869295,0.2597134,-0.45609167,0.707065,0.5362267,0.6322988,0.6521305,0.5538344,1.0785968,1.5123614,-0.3795179,0.04959018,-0.14891227,0.4018976,0.26420113,-1.2569438,-0.5257252
hsa_circ_0044510,0.1911304,-0.004756907,0.29690185,0.23526518,-0.16300584,-0.26950938,-0.6030535,0.015136652,0.20118831,0.14196265,-0.055965137,0.112587236,0.003619818,-0.18411532,-0.29148763,-0.48828438,0.18473564,-0.05379558,-0.11932861,-0.07073256,0.18545336,-0.19166599,0.10739829,0.09012633,-0.34961057,-0.28247797,-0.19069831,0.08300664,-0.4676525,-0.19005673,-0.12069991,-0.099292174,-0.39271212,0.02836034,0.460653,-0.1038569,0.036232486,0.576523,0.29513302,-0.023750983,-0.07910738,0.4863949,0.054903664,-0.003418356,0.003733642,-0.06009445,0.13937835,-0.06687629,-0.14106132,-0.005473171,0.32447,0.42042935,-0.29193103,0.095387556,0.36799228,0.35972786,0.377177,-0.039004155,0.023987118,-0.16630915,0.2583773,-0.17226791,-0.23088719,-0.026586333
hsa_circ_0044511,0.07927495,-0.20725824,0.16666214,-0.48557708,-0.14215982,-0.09647908,-0.2018957,0.12622264,0.05597114,0.14283451,0.33499306,0.41713053,0.1294101,0.087242804,-0.29850724,-0.10198892,-0.25438726,0.067079216,0.039383207,0.055824786,0.038931437,-0.12748592,-0.000957843,0.0711761,-0.13643876,-0.090376146,-0.33178914,-0.12565972,-0.4033547,-0.05624451,0.17830932,0.44127578,0.08931336,-0.11899476,0.47712296,-0.022413068,0.2069713,0.5248799,0.3356411,0.15465431,-0.007708521,0.39999467,-0.11480219,-0.14893828,-0.20117585,-0.17220928,0.4922271,0.13561688,-0.10763404,-0.057059966,0.4738247,0.13672204,-0.16586661,-0.061917756,0.037173934,0.049954165,-0.006776922,-0.0950508,-0.010195267,-0.10878764,0.2582713,-0.253677,-0.065960154,0.097653516
hsa_circ_0044519,0.13723879,0.13518657,0.22180454,-0.13357636,-0.21732837,-0.09066238,-0.40973762,0.02990964,0.059837434,0.30595678,0.39613283,0.03619588,-0.013419,0.013592683,-0.5054333,-0.21523826,-0.20862629,0.07846058,0.3621299,0.029208161,0.34871113,-0.29093692,-0.08303357,0.14513375,-0.16144674,0.06310016,-0.3517905,-0.015999204,-0.43119407,-0.27738014,-0.053761523,-0.08272537,-0.0639568,-0.11466193,0.4616647,-0.25377688,0.06330432,0.29019937,0.3000156,-0.001863906,-0.022951744,0.42638266,0.029092098,-0.11731408,-0.08325634,0.062456265,0.13514368,0.2008755,-0.12388571,0.12257474,0.11374803,0.11167693,-0.20473011,0.07999493,0.14766344,0.36380687,0.19696176,0.00985347,0.17788371,-0.31908116,0.22438593,-0.12230083,-0.09445698,0.14567396
hsa-miR-6882-3p,0.35065985,0.048912495,1.3124387,0.66035086,0.6940176,0.32416573,-0.45513523,0.26514488,0.09175155,0.5639788,0.5552428,-0.8408797,-0.35467803,-0.38988867,-0.18910187,1.3755757,-0.401634,0.38145906,0.21374027,0.30823162,0.1426131,1.1228082,0.04569655,0.30253828,-0.95637494,0.6509471,-0.6135021,0.869361,-0.066730596,-0.36026204,0.07846333,0.17205906,-1.3689492,0.057321046,0.78145313,0.81585026,-0.28794155,0.13731268,-0.563725,-0.24733344,1.1860044,0.23769598,-0.9279855,-0.23359928,1.4573728,-0.028406713,0.7660607,-0.7737815,-0.22746864,-0.4459316,0.8320685,1.4617577,-0.5538493,-0.6768092,-0.082420096,0.02581812,-0.21733372,0.0893679,0.37057897,-0.1967999,-0.58178663,0.5701687,0.7898695,0.15288946
hsa_circ_0068939,0.12695904,0.39331803,-0.05017827,-0.21245462,-0.13589413,-0.0771423,0.016209658,0.04229433,0.23535046,-0.013038171,0.1445696,0.11824611,0.07712817,0.087381646,-0.42392233,-0.004615458,-0.2315078,0.103242464,-0.13553265,0.33535546,0.18997101,-0.08877338,0.022224449,0.30990514,-0.08384523,-0.110863894,-0.30606833,-0.22327556,-0.524965,-0.35592437,0.09682651,-0.007786221,-0.2344077,-0.06125505,0.41155905,-0.067368336,0.2667835,0.088340074,0.2545634,-0.2555674,0.1099356,0.21504223,-0.03948143,-0.34465128,-0.4609344,0.05982665,0.39148334,0.08342559,-0.16796969,-0.07335395,0.44515988,0.2071615,-0.031108297,0.13145883,0.15997016,0.014871156,0.11921994,-0.044865817,0.07811573,-0.22620781,0.25194168,-0.24589007,-0.18132068,0.025655543
hsa_circ_0068940,-0.10416598,0.12263531,0.3645181,0.20305987,-0.37758884,-0.26318094,-0.29637453,0.2361948,0.21616252,-0.02026132,0.11375327,0.27759388,0.21565899,0.20062585,-0.23636644,-0.055228915,-0.08622795,-0.1007843,-0.03292483,0.25733808,0.11170897,-0.07198701,-0.31638202,0.21540093,-0.09205484,0.03045338,-0.20672801,-0.25220948,-0.15340605,-0.10594238,0.042768285,-0.04284969,-0.33522317,0.059431423,0.60978526,0.13787766,0.094935365,0.48368502,0.3223294,0.07730112,0.12131754,0.5064431,0.18569444,-0.11279851,-0.3019417,-0.22242688,0.12712921,-0.044522066,-0.22883818,0.14466667,0.14971244,0.017683325,-0.3838409,-0.039316155,0.10722687,0.11677913,0.15031753,0.002868671,-0.13013305,0.09036243,0.13506389,-0.431827,-0.055372506,0.066406846
hsa-miR-6797-5p,0.44743434,-0.716063,1.2528822,0.6603581,-0.59803516,-0.44342119,0.9652143,0.4929833,0.52457076,0.56857413,0.59183735,0.4150228,-0.18673308,-0.8396705,1.1826042,0.84156144,-0.50981027,0.3239396,0.44473967,1.1048683,0.42346862,0.62601113,-0.18959847,-0.6648278,0.4362639,1.2062411,0.08490117,0.2763916,-0.24729599,-0.43714112,-0.3143999,1.0500206,-0.45220616,-0.008923708,-0.53299147,-0.36466673,0.2902607,-0.03481395,-0.37114683,-0.69477654,-0.21655132,1.1279678,-1.1097511,-0.6576262,0.12954473,-0.5684884,-0.49324796,0.6391382,-0.3323027,-1.6515563,0.987593,-0.25437564,-0.57518244,0.09602276,0.2834958,1.0851779,0.7766743,0.2052804,0.29665202,-0.35130233,-1.1855031,0.6786112,-0.06894022,0.5092338
hsa-miR-6848-5p,0.31044245,-1.2423276,0.74534166,0.25840947,-0.691132,0.44649547,1.081872,0.035467654,0.35870293,-0.35936967,0.54487854,0.013443411,0.42189264,-0.80867064,0.5978134,1.6769239,-0.26935282,0.04685439,0.27476364,0.76553583,-0.39403114,-0.65937096,-0.7795386,0.020424886,-0.86557436,0.527739,0.45558244,1.2880743,-1.6038386,-0.17586686,0.99623764,-0.15769085,-0.6730251,-0.4663719,-0.20417182,-0.2000301,0.65624774,0.20180234,-0.5418838,-0.6139677,0.7236873,-0.1341623,-1.5021461,0.08010382,0.6290722,-0.6541388,0.19710487,0.7863056,0.5627994,-1.1660681,0.62737036,0.21560378,-0.5036711,0.4044743,-0.35905257,0.8012587,0.63007957,-1.0702652,-0.33960125,-0.5904076,-0.52386266,-0.43360752,0.2790825,0.1612194
hsa-miR-361-3p,0.026419904,-0.30414385,0.5920466,-0.13214575,0.2609211,0.12780738,-0.6750544,-0.1271863,-0.17698091,0.014641132,0.015212703,-0.64354855,-0.3141605,0.42716843,0.5938131,1.018502,-0.30110818,0.71287113,0.8340622,0.18474364,-0.044955056,0.32125378,-0.5920606,-0.088248506,-0.9419865,-0.027340304,-0.471794,-1.0260544,-0.6068989,0.22546872,-0.59952646,-0.16400367,-0.8441827,0.26966873,-0.40249416,-0.18821399,0.59792334,0.4299559,0.22680053,-0.18193705,0.41054136,-0.45709327,-0.75970715,-0.4825348,0.5550345,-0.93263453,-0.34639844,0.28873086,0.18718676,-0.027445344,1.45991,-0.076213755,-0.30689445,0.7985502,0.1455284,0.34925008,0.23818128,-0.40052012,-0.002765752,1.1973572,-0.23809156,0.15406516,-0.12999961,-0.15082997
hsa_circ_0079070,0.001908337,0.11505006,0.28705102,-0.045365695,0.042868137,0.07500446,-0.2059643,0.0610941,0.5379215,0.2567198,0.29186526,0.22313087,0.21202514,0.1349617,-0.41161668,-0.37898254,-0.23505048,-0.100059986,0.2209448,0.014077959,0.21349035,-0.19971268,0.063641936,0.28247157,-0.120000474,0.24961397,-0.40849185,0.032763533,-0.39840913,-0.27027413,-0.05073212,0.46564522,-0.07876053,0.036183,0.16721128,-0.20767568,0.17282279,0.39016536,0.14597897,0.10713169,0.2994763,0.28187928,0.059543744,-0.27107212,-0.17333384,-0.3452599,0.30398455,0.057362918,-0.0599568,-0.010609313,0.069287695,0.051197715,-0.20351416,-0.013375622,0.0890344,-0.010505195,0.17089134,-0.19244222,0.081729524,0.008831131,0.09784867,-0.21519363,-0.24276266,-0.28690192
hsa-miR-5001-5p,-0.23889086,-0.4630685,0.8479228,0.5432589,-0.90307,-0.50465155,0.31712553,-0.2898267,-0.030616175,0.4201238,1.2727379,0.6777699,-0.9321004,-0.64049846,1.1216503,0.15998782,-0.41835898,-0.3829874,-0.12333745,1.0597733,0.32111987,0.9533891,-0.3495922,-0.38235986,0.5697008,0.6136659,-0.42820683,0.501421,-0.789607,-0.5007679,-0.7906392,0.003970207,-0.30180386,-0.27824363,-0.9428118,-0.15544185,0.23721252,-0.11930728,0.1357908,-0.6662125,0.083025925,1.0056256,-0.17392129,-0.7497233,0.56720364,-0.70861197,-0.21275733,-0.034464706,-0.37764546,-1.3898653,0.6790404,-0.14782508,-0.73981667,0.24942547,0.2705665,0.45780045,1.2782013,-0.26747915,0.6522229,-0.03875818,-1.9275765,1.0657423,0.42045727,0.45583946
hsa-miR-6893-3p,0.8890566,0.65428144,1.6514716,0.110792525,0.48594126,0.7811811,-0.76058334,-0.9042435,-0.35886016,-0.9618446,0.82658935,0.13676359,-0.04669943,-1.0571939,0.81733793,0.57758534,-1.7465848,0.11711921,0.7335995,0.0758497,1.2448113,-0.16466622,-0.18891361,-1.1755486,-1.2844698,1.5934662,-0.47834077,-0.4457437,-1.3922647,0.6639502,0.034178756,-0.05110443,-1.0371686,-0.28315136,0.3608567,0.43777534,0.16476682,-0.48602134,-1.0105269,0.121357456,0.85979074,0.74811363,0.26586324,0.5698889,0.08528036,0.14476451,-0.9355952,-0.06032382,-0.95410603,-0.011493808,0.26955092,-0.22085364,-0.1350942,-0.8982596,0.08705831,0.2456621,0.774712,-0.5703013,-1.7646761,-0.55042535,-0.9106592,-1.2509677,-0.49248818,0.4952634
hsa-miR-6784-3p,0.5951422,-0.5373911,0.45921636,0.16519979,-0.575267,-0.45400622,-0.3838398,-0.4766498,0.10139891,1.4132018,-0.009423788,-0.9547751,-0.45239723,0.61974883,0.34045047,1.772682,-0.7977829,0.6791345,0.40444568,0.3552683,0.561736,0.5155891,-0.2628387,0.8946548,-1.0151522,0.32890853,-0.254271,-0.5297483,-0.73741984,-1.0851222,1.1311558,-0.059024096,0.31876594,0.6614303,0.12841125,-1.31639,0.85290337,0.70283085,-0.6883161,-0.04848003,-0.52616554,-0.039751224,0.08204208,0.50745636,0.3514316,-0.4696229,0.30213273,-0.028444458,0.48517966,0.6386172,0.7630617,0.73734033,0.3292251,0.765246,-0.5576488,0.16536263,0.904095,-1.0311942,-0.47083437,0.9770884,-0.8611076,0.48423824,0.44866064,-0.017228968
hsa-miR-6787-5p,0.6567357,-0.41303882,0.19001245,0.22633451,-0.514767,-0.31261045,-0.35337463,-0.83728784,0.062859915,1.2522404,0.095799185,-1.1044484,-0.5174669,0.6492797,0.38014206,1.7139193,-0.6393815,0.84488827,0.40145814,0.433299,0.6422976,0.4644161,-0.4850695,0.7506039,-0.97647065,0.5084389,-0.15087251,-0.49972457,-0.75282365,-1.1464084,0.9920364,-0.07363799,0.3116031,0.53812844,0.15444759,-1.4121137,0.86036974,0.5215199,-0.7903272,-0.08569043,-0.56484437,0.026414976,0.13715653,0.41909644,0.14086945,-0.46981815,0.21945167,-0.005155037,0.38382924,0.845574,1.0249019,0.93981105,0.40605822,0.7358908,-0.59643334,-0.06051864,1.0627904,-0.894452,-0.50000304,0.9702311,-0.64278406,0.34527254,0.5334511,0.2736846
hsa_circ_0007286,-0.17732397,0.08353019,0.3893926,-0.13855556,-0.21098441,-0.06559188,-0.1559593,-0.08560059,0.21928062,0.025235089,0.15637423,0.24409603,0.13898778,-0.02287111,-0.3256095,-0.48398772,-0.3359835,0.047808543,-0.022969067,0.1606331,0.24165119,-0.16483597,-0.15286615,0.20713428,-0.28508028,-0.0760273,-0.28035998,-0.153409,-0.23478061,-0.13407293,-0.04520851,0.14745115,-0.19226958,-0.031251937,0.44687387,-0.06365606,0.14056273,0.4654872,0.16248217,0.06819977,0.058254573,0.29242966,0.06380797,-0.07097998,-0.19440101,-0.2381517,0.2828578,0.2017341,0.023833733,-0.1501889,0.14993486,0.14355136,-0.040580057,0.2061079,0.25381494,0.40065846,0.10573116,-0.34133142,0.11101052,-0.079313375,0.1941183,-0.30243674,0.23886679,0.32371795
hsa_circ_0044518,-0.001121196,-0.06662367,0.48670846,-0.20714381,-0.22175981,-0.3013463,-0.20121834,-0.03726634,0.082832344,0.2286674,0.27982965,0.19261977,0.2676328,-0.058564313,-0.13433562,-0.42055455,-0.07931709,-0.16519618,-0.11682539,0.037781484,0.10462286,-0.09177165,-0.11535465,0.15492196,-0.32293782,-0.11897421,-0.37941658,-0.13588473,-0.2009726,-0.24826607,0.1065417,0.15517926,-0.26271498,-0.2350593,0.27422088,0.049927376,0.2542114,0.33903283,0.10735934,0.05396305,0.049792197,0.25160915,0.014054902,-0.14911237,-0.3617361,-0.09542717,0.1813691,-0.022317272,-0.110186815,-0.004331219,0.28454062,0.16837445,-0.30956817,0.003022985,-0.04367838,-0.055625003,0.42180458,-0.043315805,0.18974763,-0.00091219,0.40648264,-0.15755449,-0.17400008,0.036358688
hsa-miR-181d-5p,0.6527383,-0.4891885,0.52224827,0.5560922,-0.7631815,-0.63632566,0.5887025,-0.10293592,-0.16403459,0.3967861,1.274611,0.921986,-1.0097667,-0.6395417,1.0055302,0.27995193,-0.3367173,-0.19095324,-0.001247293,0.9067581,0.38148683,0.9448324,-0.26467323,-0.40875062,0.61539,1.103397,-0.21662341,0.37888455,-0.8418759,-0.6369766,-0.6975448,0.05526607,-0.6088163,0.05814433,-0.76566,-0.46098417,0.45610377,-0.40562737,-0.006750171,-0.6209686,0.13493374,0.82329667,-0.19891812,-1.0280704,0.8159384,-0.8505391,-0.28876406,0.3061294,-0.25399575,-1.2761247,0.9115822,-0.1431074,-0.7878867,0.17431603,0.4790708,0.73348874,0.9614328,-0.34399104,0.66244465,-0.45735842,-1.9680065,0.8733113,0.25613335,0.8063946
hsa_circ_0073778,0.19970897,0.0363887,0.1737425,-0.007037563,-0.2857999,0.003935006,-0.4950357,-0.063952796,0.325629,0.08363668,-0.010122478,-0.042956002,0.109664805,-0.05821882,-0.165811,-0.2428589,-0.2573935,0.14994787,0.006814904,0.10908582,0.23246655,-0.16741367,-0.23294955,0.50473624,-0.08227855,0.1432387,-0.4993899,-0.17283401,-0.522502,-0.35940206,0.023434695,-0.18360566,0.034524158,-0.03647949,0.34031823,-0.14416093,-0.14467162,0.32860503,0.2884372,-0.10951026,0.13402219,0.38860804,0.032772597,-0.11179207,-0.12823641,-0.16993278,0.2624829,0.1082056,-0.27268308,-0.113470405,0.005380716,0.11923492,-0.23176436,0.045134474,0.18846208,0.18691835,0.13255818,0.035032354,0.067491464,-0.16823189,0.31185368,-0.29503366,-0.2350447,0.09993666
hsa-miR-5004-5p,0.6870975,-0.26317942,0.1842566,0.27051395,0.2912723,-0.17048685,0.21492937,0.3379008,-0.2749623,0.3106843,0.48148456,-0.55458724,0.11137908,0.022704339,0.3050463,0.8613092,-0.4512761,-0.08374382,-0.31143045,0.8208471,0.6148528,0.44507053,-0.016303856,-0.14295365,-0.11446081,0.3953305,-0.031961806,0.007081162,-0.3435947,-0.07523809,-0.61928004,-0.03682668,-0.42932865,-0.72027284,-0.57524335,-0.25033325,-0.37933752,0.50999635,0.62315696,0.47642273,-0.2577279,-0.09412663,0.035789054,-0.06455094,0.36007726,0.18936776,0.25629005,0.10355037,0.1730773,0.3124103,0.069692105,0.19269757,0.0456894,0.11116576,0.33653536,0.32413766,0.6901607,-0.87744486,-0.43976226,0.56491184,-0.054578703,-0.66655976,0.21781738,-0.13866408
hsa-miR-1236-3p,1.133859,-0.056813337,0.13833407,-0.89179987,0.34109348,-0.2726591,0.30966198,0.10903833,-0.37640002,-0.8802978,1.1103154,0.6804985,0.18053097,-0.30206564,0.4305688,0.8835806,-0.42265218,0.19469123,0.010841358,0.95697653,-0.59561014,-0.45199737,-0.5578007,0.36832127,-0.76073265,0.1442955,-0.7119535,0.7356828,-0.1002653,-0.17794931,0.94831496,0.3397331,-1.8702915,-1.179713,-0.17904985,0.336458,-0.102874964,0.1449293,-0.20045508,-0.90401137,0.7162026,-0.3089629,-2.1343303,-0.051401086,1.401297,-0.30851182,0.030103663,-0.5809463,-0.6707,0.52755135,-0.10672909,0.49027482,-0.5844025,-0.3620254,-0.14994162,0.75134987,1.0945247,-0.5762709,-0.021020457,-0.086252555,-0.76582724,0.7710524,0.8878124,-0.002622719
hsa_circ_0044524,0.120643966,-0.33577317,0.38011372,-0.2619729,0.039479423,0.047528945,0.09756415,0.28580093,0.27897042,-0.034861594,0.163261,0.09516401,-0.0909322,0.13858956,-0.35870966,-0.2815439,-0.17981015,0.21894893,0.010505275,0.20744112,-0.114561215,0.046007883,-0.11055857,0.38769993,-0.15036415,-0.26740628,-0.3139287,-0.3929932,-0.41114974,-0.23432973,0.11670972,-0.021122051,-0.004548163,-0.18368992,0.26649883,-0.061037578,0.045284294,0.320466,0.39283854,0.011446335,0.15379271,0.41295725,0.03133934,0.068811715,-0.36058924,-0.11342152,0.019250168,0.024799582,-0.5760968,0.0926395,0.23655504,0.26295263,-0.019344483,-0.007431218,0.025041852,0.1848057,0.4111097,0.082719356,-0.08607056,-0.21148342,0.070405275,-0.30904683,-0.29191983,0.26824504
hsa-miR-769-5p,0.6128428,0.44775486,0.7192057,-0.46306622,-0.49841568,-0.5942507,0.39546806,-0.24355447,-0.3031349,0.09731074,0.9247302,-0.5248311,-0.37099242,-0.32432836,-0.2515226,0.5333322,0.6578184,0.15814595,0.13253877,0.7061548,0.12485236,0.65201974,-0.55589145,-0.332614,-0.43826514,0.45060232,-0.56020635,0.33059976,-0.5242051,0.38885736,0.71798515,0.11865991,0.09016679,-0.15407392,-0.006534208,0.09030629,-0.46974784,-0.2054687,-0.5337669,0.46608597,0.3569321,0.13609536,0.004212053,-0.10205705,0.5345547,-0.8182917,0.42388275,-0.5213596,-0.20650172,-0.27525303,0.704551,-0.49944875,0.88488984,0.109294005,0.7732234,0.72380346,0.7325355,0.057894487,-0.30565926,0.79470474,-0.121508166,-0.38049853,-0.26398385,-0.39505485
hsa-miR-6744-5p,0.6436171,-0.22223517,0.13476202,0.044083863,0.18406641,-0.40258077,0.18770684,0.310851,-0.4170485,0.31381416,0.3786251,-0.55287075,0.09080107,0.0932793,0.3809213,0.9559737,-0.40277767,-0.15682925,-0.33183178,0.7622739,0.6541791,0.42003396,-0.034497317,-0.106825314,-0.106589496,0.33602986,0.05524182,0.10149775,-0.31744054,-0.16661586,-0.6031021,-0.105280764,-0.5893387,-0.75909996,-0.51355994,-0.11649631,-0.30674806,0.438814,0.45971832,0.5524482,-0.35203826,-0.030660076,0.08047223,-0.10085461,0.32956618,0.11434183,0.27408916,0.13354364,0.1940994,0.17583571,0.12079598,0.20577562,-0.060426123,0.11903236,0.28210172,0.22262585,0.69693553,-0.86723334,-0.5378397,0.5232939,0.08539464,-0.7036295,0.20931242,-0.015814546
hsa-miR-135b-3p,0.34810662,0.003576694,0.387095,0.1721507,-0.35560286,0.05769373,0.6408194,-0.9446693,-0.58675635,-0.3168037,0.8471886,-0.19445482,0.8036253,0.55689824,0.1799695,0.8908956,-0.24517001,0.15164655,0.08196716,0.38902837,-0.22886169,1.1530824,-0.14855114,-0.38851187,-0.07349192,0.81832105,0.34902215,-0.3695174,0.28671736,-0.9615447,-0.38909096,-0.06804155,0.39574167,-0.71564215,0.6135083,0.59229374,0.21390817,1.0364896,-0.42019013,0.5407245,0.94588554,0.2815316,0.15485825,0.11498031,1.1984848,-0.17349608,-0.21189202,-0.50657076,0.08582759,-0.34571174,0.6501605,0.51043934,0.40523314,0.69949603,0.52874863,0.92303,1.5762485,-0.39586216,0.057520863,-0.34090298,0.29681823,0.18138506,-1.3811094,-0.2380642
hsa-miR-4269,0.21906197,-0.26418945,0.52486354,-0.22504558,0.2935822,0.23363863,-0.6115579,-0.13500525,-0.1344064,0.053513736,0.10704129,-0.6489797,-0.36453912,0.41221657,0.5092863,1.0579886,-0.32505682,0.71060747,0.66902846,0.18879518,0.0912806,0.46318334,-0.48542902,-0.06134304,-0.82875234,-0.101916976,-0.20686135,-0.94704866,-0.7184885,0.29072472,-0.6977804,-0.2285102,-0.8451771,0.255134,-0.2591734,-0.17577335,0.7143598,0.36010802,0.21862404,-0.22301723,0.5121362,-0.3733033,-0.7843119,-0.5448203,0.50541776,-1.1888175,-0.3132892,0.35821852,0.35054487,0.117820464,1.3975676,-0.1654678,-0.29522476,0.8973133,0.11491498,0.16939957,0.35999313,-0.3165492,-0.12096993,1.0313509,-0.31370765,0.1448942,-0.073419705,-0.06993803
hsa-miR-4682,0.68402016,-0.30148134,0.21815313,0.12914531,0.2697177,-0.39139605,0.13617894,0.34936446,-0.25447065,0.32174042,0.41684696,-0.5640253,0.08659984,0.10927943,0.43502483,0.9407813,-0.39861023,-0.012324314,-0.44854546,0.7802632,0.5834913,0.42440692,0.043094628,-0.12698331,0.012817874,0.4534431,-0.008824197,0.0727472,-0.41289592,-0.161137,-0.6512189,-0.0628956,-0.48506546,-0.7436999,-0.47696036,-0.14894764,-0.23253967,0.4936487,0.5389218,0.521666,-0.26367807,-0.093973234,-0.024638463,-0.10136835,0.27114177,0.20272847,0.19537538,0.022129845,0.09116189,0.2584048,0.048149195,0.163233,0.10565579,0.08879337,0.32229635,0.20337293,0.73580045,-0.78540325,-0.5551975,0.5373897,0.002076309,-0.6853576,0.22346964,-0.08408582
hsa_circ_0048499,0.049694393,-0.101795405,0.048781276,0.0501723,-0.15390363,-0.22065271,-0.0404691,-0.050683763,-0.13331887,0.11775724,-0.10303097,0.122023545,0.27032185,0.015660806,-0.45823252,-0.14472678,-0.25177756,-0.054981627,0.017455444,0.18083127,0.25946316,-0.11749757,0.10729119,0.22643849,-0.51090556,0.21059741,-0.42785206,-0.23912258,-0.46987706,-0.2634175,-0.071376465,-0.017318537,-0.15970597,0.08306602,0.4127399,-0.14934425,-0.09906332,0.2581922,0.39852,-0.14152172,0.14417192,0.3530286,0.058245078,-0.22660893,-0.2628598,-0.27582777,0.08695808,-0.12886117,-0.23249675,0.06993459,-0.010667981,0.039104503,-0.2742841,0.008672294,0.038139764,0.08766181,0.36141747,0.1284354,0.21388125,-0.09363008,0.21628658,-0.033593193,-0.13494554,0.2585378
hsa-miR-6795-5p,-0.18560454,0.20029046,0.5611914,0.5688938,-0.30059713,-0.20929918,-0.2668993,0.002972759,-0.051681213,1.1199657,0.3968744,-0.7508472,0.2675261,-0.16411245,0.46603474,0.33774304,-0.17354728,-1.0839262,0.44693366,1.0466195,0.045603972,0.5781341,-0.35582754,-0.6003534,-1.2553915,1.0194407,-1.017002,-0.48549813,-1.0178503,-0.21800406,0.42159224,0.66121453,-0.8428931,-0.83615613,0.7573342,0.47644606,0.3197287,-0.4996075,-1.5222368,-0.013811727,0.14458728,0.016879521,-0.28011107,-0.37482437,1.5897224,-0.42604375,-0.47688016,0.853692,-0.5764293,0.33698508,0.90065897,1.5032697,0.19116068,0.06942965,-0.37688664,-0.6434809,0.055339355,-0.79486144,0.1269941,-0.65162647,-1.3080033,-0.15019736,0.24837378,0.26453143
hsa-miR-4691-5p,-0.44953158,-0.118792586,0.77441466,0.53414786,-0.28725213,-0.11122046,0.1619259,-0.6429414,-0.4567459,-0.06756821,0.86759025,0.6694007,-1.4504504,-0.11629212,1.0912185,0.033215024,-0.24143922,0.1605894,-0.40849742,1.224724,0.59834737,0.86244214,-0.8594477,0.10035573,0.20510903,0.7769786,0.5901857,0.36478332,-0.19215907,-0.7267467,0.111332536,-0.71573454,0.037472725,-0.35890716,-1.0813354,-0.34609157,0.07458652,-0.10791328,0.2934196,-0.48580942,0.30075634,0.713806,-0.5046554,-1.0192031,0.76155347,-0.873839,0.9253348,-0.29291865,-0.72305053,-0.91176414,1.0566311,0.7373182,-0.8444298,-0.29446083,-0.24497831,0.11746745,1.5511525,-0.54752135,0.53265214,0.7485679,-0.99957335,0.63534033,-0.16791458,0.25945118
hsa_circ_0044509,-0.16635938,0.27209154,0.0852809,-0.23848599,-0.2258488,-0.21427023,-0.026452573,-0.14098114,0.38564712,0.059284434,0.2569664,0.31739092,0.021293284,0.38750747,-0.553363,-0.08271274,-0.1432273,-0.3528728,0.010235678,-0.0733905,0.17459363,-0.2305854,0.020297125,0.20355469,-0.08022762,0.06471122,-0.4571909,-0.24268301,-0.514405,-0.24075383,-0.14596575,0.075887926,-0.12339002,-0.006428971,0.23018631,-0.18694511,0.016674414,0.18855321,0.1749822,-0.095349915,0.24075252,0.2326023,0.033955857,-0.5569616,0.00776834,-0.21045502,0.11492237,0.30616623,-0.24922729,-0.09819,0.051866155,0.27160707,-0.05467502,-0.22813503,0.10836122,0.4284152,0.30692887,-0.36812449,0.018135823,-0.07626696,0.25565168,-0.115231685,0.13221987,-0.07538047
hsa-miR-1915-3p,0.04831749,-0.35851863,0.4751627,-0.114734665,0.23807138,0.10560551,-0.59226847,-0.049614213,-0.12581307,-0.10193665,0.014078443,-0.7902534,-0.2631913,0.36185825,0.6374512,1.0982537,-0.17087711,0.6636092,0.78357744,0.21531285,0.2255849,0.17440492,-0.5309672,-0.043071814,-0.9269895,-0.0661181,-0.3334013,-0.8709452,-0.6092958,-0.077841505,-0.5765609,-0.110932164,-0.9187849,0.14441042,-0.22955438,-0.19805704,0.73000854,0.324879,0.09407797,-0.21306717,0.55562663,-0.43506467,-0.76860285,-0.52334577,0.44149914,-1.0791076,-0.29660833,0.21385205,0.23025739,0.060098168,1.43643,-0.29578164,-0.34626386,0.82447374,0.24885304,0.13773821,0.25477946,-0.3071867,0.04612638,1.2292572,-0.40524065,0.10278252,-0.18378575,-0.3229658
hsa-miR-484,-0.20671013,0.20415214,0.6430956,0.5567361,-0.14568661,-0.24602522,0.042730078,0.18599676,0.09069992,0.9130754,0.3220875,-0.71055466,0.37801158,-0.14684735,0.39424056,0.36371228,-0.17950547,-0.76791435,0.5084627,1.1603088,-0.08326798,0.4636611,-0.22072293,-0.47203216,-1.17241,1.1679567,-0.8927812,-0.9014202,-0.79500073,-0.013740509,0.48868,0.46016866,-0.7057827,-0.64869094,0.55965984,0.23840076,-0.004091674,-0.43412444,-1.6084129,0.1570927,0.15245643,0.09335513,-0.5060875,-0.11906438,1.5076361,-0.5834784,-0.49457908,0.9247755,-0.65537375,0.33356044,0.8254303,1.9112124,-0.045706205,0.046329405,-0.0773004,-0.676688,-0.020632619,-0.86959887,0.2590659,-0.48875666,-1.3342675,-0.091490164,0.20936655,0.19017288
hsa-miR-4510,0.33544794,-0.11885081,0.40358716,-0.08377233,-0.26085964,0.11641622,0.6009869,-0.6280021,-0.51749784,-0.38849697,0.9837768,-0.32926154,0.9596795,0.26118112,0.2924546,0.96410304,-0.39205477,0.16522095,0.13829179,0.461826,-0.19617745,0.99252105,-0.30604482,-0.50384504,-0.13165429,0.8566979,0.22770691,-0.62299675,0.27512613,-1.0733203,-0.41404006,-0.078076,0.5578032,-0.62447345,0.5914354,0.5195018,0.21457255,0.9719327,-0.25289074,0.3864415,0.9232847,0.49558765,0.38856283,0.049535975,1.056664,-0.060988452,-0.22344343,-0.7676123,0.29225013,-0.7219136,0.7517112,0.570108,0.4718744,0.61746246,0.5241256,0.9221184,1.3673916,-0.4781488,0.03468998,-0.2759565,0.4882075,0.37953234,-1.1156054,-0.44766662
hsa_circ_0044529,0.08206407,0.050177503,0.23103282,-0.06080812,-0.23362236,0.1212278,-0.04412318,-0.017305413,0.15686311,0.050369415,-0.055632893,0.22137609,0.22631274,0.06332918,-0.39436865,-0.13300116,-0.070762135,0.026629757,-0.20825543,-0.08343106,0.2446965,-0.24665451,-0.23018783,0.38824984,-0.21569274,0.017507259,-0.3455875,0.046810925,-0.27804196,-0.15821852,-0.18880038,0.008443564,-0.119601205,-0.07986826,0.51709163,-0.10198131,0.14515395,0.10409797,0.2254784,0.12596793,0.013970832,0.4270379,0.036917098,-0.32149455,-0.2629171,-0.19979738,0.40685257,-0.071745925,-0.4217242,-0.020144252,0.31764978,0.044084743,-0.056574263,0.3236926,0.17518778,0.11626174,0.39341477,-0.19897,0.1363632,-0.2360861,0.015217884,-0.33779252,-0.036822725,0.16297537
